{
  "feature_layer.0.weight": [
    [
      0.04278302565217018,
      -0.07437368482351303,
      0.11677791178226471,
      0.2519766092300415,
      0.3283170759677887,
      0.12471155822277069,
      0.08781493455171585,
      0.011117231100797653,
      0.14333435893058777,
      0.07540005445480347,
      0.2586577236652374,
      0.2904990017414093,
      -0.01105903834104538,
      0.013416683301329613,
      0.23504388332366943,
      -0.03364304453134537,
      -0.0090905437245965,
      0.25153738260269165,
      0.13167567551136017,
      0.2691653370857239,
      0.1554020494222641,
      0.0810021385550499,
      0.12193454056978226,
      0.1251789778470993,
      0.19504748284816742,
      0.14879651367664337,
      0.20830442011356354,
      0.15311327576637268,
      0.13157059252262115,
      0.09793135523796082,
      -0.08087126910686493,
      0.08066946268081665,
      -0.16648629307746887,
      0.11834020167589188,
      -0.017511481419205666,
      0.12390028685331345,
      0.08083776384592056,
      0.13711602985858917,
      0.06510208547115326,
      -0.12345763295888901,
      0.10619299858808517,
      -0.03153373673558235,
      -0.05361482501029968,
      0.07590623944997787,
      0.14864690601825714,
      0.161674365401268,
      0.2862287759780884,
      0.08718743175268173,
      0.1263265460729599
    ],
    [
      -0.04836012050509453,
      -0.05355316773056984,
      -0.32253292202949524,
      0.07113977521657944,
      0.015293827280402184,
      -0.08001776039600372,
      -0.13025671243667603,
      0.015445424243807793,
      -0.023874374106526375,
      -0.1636006087064743,
      0.3813764154911041,
      0.0272605549544096,
      -0.01232386939227581,
      -0.050013866275548935,
      -0.3374163508415222,
      0.05127091705799103,
      -0.2536824643611908,
      0.04998832568526268,
      -0.1441810578107834,
      0.21022900938987732,
      -0.08558513224124908,
      -0.0879095047712326,
      0.49820375442504883,
      0.050199467688798904,
      -0.013718939386308193,
      -0.1316526085138321,
      0.2295532524585724,
      -0.1469365656375885,
      -0.2954392731189728,
      -0.09068439900875092,
      0.07325014472007751,
      0.04982912540435791,
      0.2513505518436432,
      -0.554169774055481,
      -0.8034917712211609,
      -0.06818552315235138,
      -0.030330481007695198,
      0.40294232964515686,
      0.3617168664932251,
      -0.5522207617759705,
      0.07424136996269226,
      -0.010073689743876457,
      -0.05042232945561409,
      0.039031654596328735,
      -0.09465528279542923,
      0.030035478994250298,
      -1.105458378791809,
      -0.10112833976745605,
      -0.00209843460470438
    ],
    [
      -0.07018442451953888,
      -0.022390613332390785,
      -1.0037117004394531,
      -0.6665678024291992,
      -0.8736152648925781,
      -0.01848355121910572,
      -0.047408103942871094,
      -0.03752005100250244,
      -0.10809215903282166,
      -0.3125464916229248,
      -0.08210515230894089,
      -0.16790369153022766,
      -0.07048207521438599,
      0.02743498794734478,
      -1.363417625427246,
      -0.5273534655570984,
      0.04703774303197861,
      0.05259207636117935,
      0.4166589677333832,
      -0.4168877601623535,
      -1.0385730266571045,
      -0.4727648198604584,
      0.33971837162971497,
      -0.02198285609483719,
      0.1921139508485794,
      -0.05452553182840347,
      0.1580595076084137,
      -0.47901150584220886,
      -0.9638758301734924,
      -0.415625661611557,
      0.10728561133146286,
      0.08458014577627182,
      0.23383605480194092,
      -0.36516520380973816,
      -0.9668411612510681,
      -0.08184461295604706,
      -0.07257828116416931,
      -0.40887725353240967,
      0.20781566202640533,
      -0.301675945520401,
      0.05292779952287674,
      0.08006192743778229,
      0.08671799302101135,
      -0.034932687878608704,
      -0.8365060091018677,
      -0.29134732484817505,
      -0.722642719745636,
      -0.016507992520928383,
      0.0739939883351326
    ],
    [
      -0.015558992512524128,
      0.005158959422260523,
      -0.36852869391441345,
      -0.14782772958278656,
      0.06628995388746262,
      -0.1263381391763687,
      -0.11490104347467422,
      -0.04278262332081795,
      -0.06181829050183296,
      0.1721101850271225,
      -0.3119278848171234,
      0.3739420175552368,
      -0.08759896457195282,
      -0.005381013732403517,
      0.2606380581855774,
      -0.7614250183105469,
      -0.15741407871246338,
      -0.21348989009857178,
      -0.36308979988098145,
      -0.4382839798927307,
      -0.22525668144226074,
      -0.3267592191696167,
      0.4735201299190521,
      -0.29452791810035706,
      0.12358064949512482,
      0.3862146735191345,
      0.3495575487613678,
      -0.05193270742893219,
      -0.6254526972770691,
      -0.5178099870681763,
      -0.3022376298904419,
      0.23476484417915344,
      -0.24124836921691895,
      0.21102261543273926,
      -0.5618004202842712,
      -0.06467685103416443,
      -0.1554323136806488,
      0.16376300156116486,
      0.45859619975090027,
      0.5311629772186279,
      -0.1512557864189148,
      -0.07990555465221405,
      -0.04752381518483162,
      0.03664763644337654,
      -1.5080506801605225,
      -0.743544340133667,
      -1.0040476322174072,
      -0.06222497299313545,
      -0.014155799522995949
    ],
    [
      0.19369791448116302,
      0.2012411504983902,
      0.06330497562885284,
      0.06236222758889198,
      0.015064263716340065,
      0.18248984217643738,
      0.13851118087768555,
      0.15662604570388794,
      0.22600893676280975,
      0.19163866341114044,
      0.29599660634994507,
      0.016095023602247238,
      0.23885725438594818,
      0.22591282427310944,
      0.06096954271197319,
      0.1492871344089508,
      0.15083828568458557,
      0.1093161553144455,
      -0.017745640128850937,
      -0.030860451981425285,
      -0.0010909115662798285,
      0.14596685767173767,
      -0.0557938851416111,
      0.12874165177345276,
      0.17769484221935272,
      0.21133045852184296,
      0.21623872220516205,
      0.07278899848461151,
      -0.1269260048866272,
      0.13767468929290771,
      -0.16529978811740875,
      0.0966326892375946,
      0.0486379936337471,
      0.06154264137148857,
      0.07740004360675812,
      0.10865957289934158,
      0.23064367473125458,
      -0.12423844635486603,
      0.31446459889411926,
      0.18041574954986572,
      0.07331173121929169,
      0.04147224873304367,
      0.24222834408283234,
      0.17037171125411987,
      0.001981717301532626,
      0.03215966373682022,
      -0.00035809166729450226,
      0.06959880888462067,
      0.028928061947226524
    ],
    [
      0.17697905004024506,
      0.08598465472459793,
      -0.010673587210476398,
      0.13518621027469635,
      0.05595614016056061,
      0.1819954365491867,
      0.18128465116024017,
      0.12818332016468048,
      0.04462659731507301,
      0.17922790348529816,
      0.13121379911899567,
      0.05701063945889473,
      0.23195166885852814,
      0.16556186974048615,
      -0.011047620326280594,
      0.22955484688282013,
      0.19826136529445648,
      0.18192654848098755,
      0.08108572661876678,
      -0.06616028398275375,
      0.16248606145381927,
      -0.026995547115802765,
      0.2783811092376709,
      0.0011507330927997828,
      0.258838415145874,
      0.17519228160381317,
      0.26310890913009644,
      0.011747847311198711,
      -0.06756014376878738,
      0.13036364316940308,
      0.1025865375995636,
      0.025491945445537567,
      0.03536944463849068,
      0.02775219827890396,
      -0.14044906198978424,
      0.18019403517246246,
      0.09306652098894119,
      0.005389172583818436,
      0.23027046024799347,
      0.0402199812233448,
      0.2297491878271103,
      0.19500182569026947,
      0.22293512523174286,
      0.18182648718357086,
      0.08980580419301987,
      0.1219821348786354,
      0.049610674381256104,
      0.05937977880239487,
      0.08616776019334793
    ],
    [
      0.04830546677112579,
      -0.09024196118116379,
      -0.0797700509428978,
      -0.023132694885134697,
      -0.018948329612612724,
      0.10698994249105453,
      0.12960858643054962,
      -0.03200885280966759,
      -0.010192721150815487,
      0.09427004307508469,
      0.28276526927948,
      0.09301421791315079,
      0.02352817729115486,
      0.09599573910236359,
      0.27040743827819824,
      -2.667713306436781e-05,
      -0.009034303948283195,
      -0.025069834664463997,
      0.04493141174316406,
      -0.06111382320523262,
      0.06077193096280098,
      -0.45736512541770935,
      -0.1256749927997589,
      0.12259491533041,
      0.05500977486371994,
      0.09988253563642502,
      -0.002658512908965349,
      -0.0882946029305458,
      -0.09380381554365158,
      -0.9183040857315063,
      0.21026630699634552,
      0.12698008120059967,
      0.17334847152233124,
      0.09039227664470673,
      0.07127915322780609,
      0.11796196550130844,
      0.020515505224466324,
      -0.265584260225296,
      0.186720073223114,
      0.1634076088666916,
      0.10953133553266525,
      0.06662128120660782,
      0.05414057523012161,
      0.09448956698179245,
      -0.0063790385611355305,
      -0.0012441305443644524,
      0.11150068789720535,
      -0.03355884924530983,
      0.12430985271930695
    ],
    [
      0.04965696856379509,
      0.0017485975986346602,
      -0.11908067762851715,
      -0.07660475373268127,
      -0.10943849384784698,
      0.07048869878053665,
      -0.036267757415771484,
      0.050995443016290665,
      0.09029204398393631,
      0.005443804431706667,
      0.13499432802200317,
      0.04724636301398277,
      -0.023034071549773216,
      0.08078456670045853,
      -0.4957932233810425,
      -0.4435740113258362,
      -0.1469702273607254,
      -0.18831247091293335,
      0.12961038947105408,
      0.16650497913360596,
      0.036842409521341324,
      -0.2967755198478699,
      0.11442916095256805,
      0.03751087933778763,
      0.0862240195274353,
      0.08750632405281067,
      0.12045705318450928,
      -0.01841825060546398,
      -0.15267859399318695,
      -0.13653695583343506,
      -0.02273288555443287,
      0.06603292375802994,
      -0.06726477295160294,
      0.03186210244894028,
      0.028564946725964546,
      -0.09389697015285492,
      -0.06521617621183395,
      0.14835438132286072,
      -0.014234045520424843,
      0.053557299077510834,
      -0.05992777273058891,
      0.08237560838460922,
      0.035142578184604645,
      -0.027876369655132294,
      -0.02662082575261593,
      0.08204870671033859,
      -0.07068490982055664,
      -0.08478076010942459,
      0.04260434955358505
    ],
    [
      -0.1756940633058548,
      -0.12621843814849854,
      -0.38714542984962463,
      -0.3571137487888336,
      -0.3781968355178833,
      -0.009015701711177826,
      -0.0956869050860405,
      -0.12662532925605774,
      -0.14440487325191498,
      -0.08833611011505127,
      0.010375923477113247,
      0.41941559314727783,
      -0.12874974310398102,
      -0.1813703328371048,
      -1.6002122163772583,
      -0.3219039738178253,
      0.15811333060264587,
      0.07142168283462524,
      0.0570896714925766,
      0.2619057893753052,
      -0.04724016413092613,
      -0.1353331357240677,
      0.352590948343277,
      -0.21310767531394958,
      -0.17239747941493988,
      -0.04729311913251877,
      0.43813812732696533,
      0.13449238240718842,
      -0.12629619240760803,
      0.2740813195705414,
      0.01015525870025158,
      0.024695362895727158,
      0.026119373738765717,
      0.055025748908519745,
      -0.4897533357143402,
      -0.0915454626083374,
      -0.1230553463101387,
      -0.0853237584233284,
      0.11890631169080734,
      0.20638810098171234,
      -0.1142040491104126,
      -0.1041010320186615,
      0.007529874797910452,
      -0.018733106553554535,
      -0.5039041042327881,
      0.3500961661338806,
      -0.7552798986434937,
      0.005282740108668804,
      -0.05654793605208397
    ],
    [
      0.04997425898909569,
      -0.03342292085289955,
      0.013589977286756039,
      -0.14893838763237,
      0.3018737733364105,
      -0.021903885528445244,
      0.0454106368124485,
      -0.030378002673387527,
      -0.0035287204664200544,
      -0.18249379098415375,
      0.24089175462722778,
      -0.18987800180912018,
      0.04977821931242943,
      0.017342770472168922,
      -0.41787809133529663,
      0.09898010641336441,
      -0.20104822516441345,
      0.24651190638542175,
      -0.05838901549577713,
      0.40039899945259094,
      -0.49616146087646484,
      0.22956986725330353,
      0.13401737809181213,
      -0.07647836953401566,
      0.08208449184894562,
      -0.12187536060810089,
      0.1093919575214386,
      -0.07409731298685074,
      -0.18253076076507568,
      -0.062062107026576996,
      -0.09248140454292297,
      0.11931038647890091,
      -0.02194039896130562,
      0.23516716063022614,
      -0.23366913199424744,
      -0.10271825641393661,
      0.0013327905908226967,
      -0.23609250783920288,
      0.145905002951622,
      -0.2618092894554138,
      0.07184396684169769,
      -0.07882429659366608,
      -0.04307722672820091,
      -0.04713905230164528,
      0.331236869096756,
      -0.3708743453025818,
      0.2994353175163269,
      0.00495776254683733,
      0.06711628288030624
    ],
    [
      0.04007186368107796,
      0.048571087419986725,
      -0.1763618141412735,
      -1.0324853658676147,
      -0.5461245179176331,
      -0.03788311406970024,
      -0.05473002791404724,
      -0.06737469881772995,
      -0.1085045337677002,
      -0.13596650958061218,
      -0.022814596071839333,
      -0.4355373978614807,
      -0.07692907005548477,
      0.04044255241751671,
      -1.0368074178695679,
      0.05235857516527176,
      0.1615544855594635,
      -0.38623830676078796,
      -0.7242340445518494,
      -1.4081183671951294,
      -0.647443950176239,
      -0.2538800835609436,
      0.14403562247753143,
      -0.13162903487682343,
      0.059497736394405365,
      -0.09131146967411041,
      0.21014966070652008,
      -0.39117395877838135,
      -0.3718642294406891,
      -0.299900621175766,
      0.1394168734550476,
      -0.210832417011261,
      -0.42959314584732056,
      -1.0423721075057983,
      -0.9122076630592346,
      -0.136573925614357,
      0.05202833563089371,
      -0.11897246539592743,
      0.11971432715654373,
      -0.3612167537212372,
      -0.0743517205119133,
      0.04131202772259712,
      -0.12183037400245667,
      -0.14330263435840607,
      -0.5383229851722717,
      -0.8643679618835449,
      0.032437488436698914,
      -0.07485752552747726,
      -0.07696429640054703
    ],
    [
      -0.1814049333333969,
      -0.20317384600639343,
      -0.4073454737663269,
      0.0340094156563282,
      -0.38978564739227295,
      -0.11396124958992004,
      -0.21965041756629944,
      -0.06615779548883438,
      -0.17729444801807404,
      -0.07819556444883347,
      0.01817474700510502,
      -0.007345336955040693,
      -0.07180357724428177,
      -0.19784486293792725,
      -0.3828065097332001,
      -0.029819048941135406,
      -0.16495753824710846,
      -0.028958581387996674,
      -0.17117001116275787,
      -0.15850603580474854,
      -0.2563076913356781,
      -0.0417945496737957,
      -0.007875736802816391,
      0.05744270607829094,
      0.08096494525671005,
      -0.22655899822711945,
      0.08236756175756454,
      0.10886867344379425,
      -0.5336467027664185,
      0.07527732849121094,
      0.028849612921476364,
      0.10901618003845215,
      -0.11245055496692657,
      -0.11532194912433624,
      -0.17231246829032898,
      -0.05032237619161606,
      -0.05530073493719101,
      0.1527090072631836,
      -0.10615038126707077,
      -0.8171366453170776,
      -0.06986410170793533,
      -0.08395519107580185,
      -0.05171097069978714,
      -0.10085336863994598,
      -0.06706880778074265,
      -0.5141188502311707,
      -2.1172878742218018,
      -0.017888762056827545,
      -0.17943359911441803
    ],
    [
      -0.049114298075437546,
      -0.007355235982686281,
      -0.21611370146274567,
      -0.27856680750846863,
      -0.24107038974761963,
      0.038218021392822266,
      -0.014470322988927364,
      0.07974539697170258,
      0.019714653491973877,
      -0.18152618408203125,
      -0.011160779744386673,
      0.06299012899398804,
      0.04718644544482231,
      -0.13339713215827942,
      -0.9544390439987183,
      -0.790520429611206,
      -0.37891149520874023,
      -0.0033078286796808243,
      0.27055975794792175,
      -0.09594612568616867,
      -0.30794093012809753,
      -0.6593111157417297,
      0.026789139956235886,
      -0.38092896342277527,
      -0.16515681147575378,
      -0.3221519887447357,
      0.16634121537208557,
      -0.35490143299102783,
      -0.859296441078186,
      -0.9354420304298401,
      -0.42069435119628906,
      -0.23774708807468414,
      -0.1818116158246994,
      -0.18408501148223877,
      -0.722423255443573,
      -0.06649518758058548,
      -0.13068094849586487,
      -0.2767675817012787,
      -0.06815139204263687,
      -0.9512054324150085,
      0.057153526693582535,
      -0.03397763520479202,
      -0.08691459894180298,
      -0.06509120762348175,
      -0.4670586585998535,
      -0.42919811606407166,
      -0.29403847455978394,
      -0.06424268335103989,
      -0.09705644100904465
    ],
    [
      -0.026269428431987762,
      0.006824469659477472,
      -0.29301032423973083,
      -0.014071011915802956,
      -0.2532412111759186,
      -0.02171626128256321,
      -0.14465956389904022,
      0.058499399572610855,
      -0.056809525936841965,
      0.30924656987190247,
      0.023304060101509094,
      0.3000834882259369,
      -0.15012235939502716,
      -0.028564991429448128,
      -0.10106872022151947,
      -0.1428668200969696,
      -0.18415503203868866,
      0.18140928447246552,
      -0.36901792883872986,
      0.14967907965183258,
      -0.7942529916763306,
      0.11015909165143967,
      0.3112236261367798,
      0.23514823615550995,
      0.2635437250137329,
      0.24682985246181488,
      -0.2084043025970459,
      -0.2444451004266739,
      -0.679373562335968,
      0.12911541759967804,
      -0.18410252034664154,
      -0.08514193445444107,
      -0.6097036004066467,
      0.19794733822345734,
      -0.5189211368560791,
      -0.09321869909763336,
      -0.008621225133538246,
      0.4568514823913574,
      0.18811702728271484,
      0.6897215247154236,
      -0.06875801086425781,
      -0.07812385261058807,
      -0.012482958845794201,
      -0.048659782856702805,
      -0.9876012802124023,
      -0.4048275351524353,
      -0.7902888059616089,
      0.0343446359038353,
      0.06419076025485992
    ],
    [
      -0.042647212743759155,
      -0.18514283001422882,
      -0.0389835387468338,
      -1.9878747463226318,
      -0.8389571309089661,
      -0.12699763476848602,
      -0.1538173109292984,
      -0.1666594296693802,
      -0.10470015555620193,
      -0.4193893373012543,
      -0.5298380255699158,
      -0.6437377333641052,
      -0.05743145942687988,
      -0.12431184202432632,
      -0.1422172486782074,
      0.0769500732421875,
      -0.2212039679288864,
      -0.024997588247060776,
      0.02248414047062397,
      -0.6256694197654724,
      -0.5885945558547974,
      -0.3506684899330139,
      0.24760432541370392,
      -0.19197656214237213,
      -0.18016082048416138,
      -0.5331377387046814,
      0.13001704216003418,
      -0.6223309636116028,
      -0.12097807973623276,
      -0.2344408482313156,
      -0.24038738012313843,
      0.05206148326396942,
      -0.40108054876327515,
      -0.21217599511146545,
      -0.013661337085068226,
      -0.08507440984249115,
      -0.09047390520572662,
      0.15476059913635254,
      0.7074498534202576,
      0.4973699748516083,
      -0.0936109870672226,
      -0.01841020956635475,
      -0.12765780091285706,
      -0.004584356676787138,
      -0.36719420552253723,
      0.01745283231139183,
      -0.7426280975341797,
      -0.02214331552386284,
      -0.006602829787880182
    ],
    [
      -0.06819276511669159,
      0.02780035324394703,
      -0.24639636278152466,
      -0.35977452993392944,
      -0.22809630632400513,
      -0.008796246722340584,
      -0.07095369696617126,
      -0.039181750267744064,
      -0.10713032633066177,
      0.29112711548805237,
      0.41023367643356323,
      0.09910085797309875,
      0.09272558987140656,
      -0.10532598942518234,
      -1.025328278541565,
      -0.10904151946306229,
      -0.10207345336675644,
      -0.35972222685813904,
      -0.10022328048944473,
      0.07350792735815048,
      -0.24353651702404022,
      -0.4076797068119049,
      -0.07775907963514328,
      -0.5694915652275085,
      0.10837126523256302,
      -0.25535285472869873,
      0.4084687829017639,
      -0.7534169554710388,
      0.05563259497284889,
      -0.19086208939552307,
      0.05125600844621658,
      -0.2580282986164093,
      -0.13055799901485443,
      -0.017907723784446716,
      0.2799302339553833,
      -0.004858075641095638,
      -0.046740103513002396,
      -0.2076147347688675,
      0.605073869228363,
      0.022827448323369026,
      -0.0619751513004303,
      0.047377169132232666,
      -0.06784208118915558,
      -0.02084304951131344,
      -0.044292304664850235,
      -0.35635632276535034,
      -0.2887858748435974,
      0.0547882542014122,
      0.0234038308262825
    ],
    [
      0.023068953305482864,
      -0.035315025597810745,
      -0.41509905457496643,
      0.2600014805793762,
      -0.2504262924194336,
      0.09685266762971878,
      -0.08201005309820175,
      -0.07160785049200058,
      -0.07758455723524094,
      0.1520901471376419,
      0.43003401160240173,
      0.1828559935092926,
      0.027567215263843536,
      -0.07659199088811874,
      -0.6040847897529602,
      0.14853541553020477,
      -0.3104109764099121,
      -0.0925639346241951,
      -0.2772948741912842,
      0.2634071409702301,
      -0.4254824221134186,
      -0.47084128856658936,
      0.3747484087944031,
      0.2089863419532776,
      0.29232117533683777,
      0.22910337150096893,
      0.5413678288459778,
      -0.0018784869462251663,
      -0.037706635892391205,
      0.20040269196033478,
      -0.03154098615050316,
      0.1397448480129242,
      -0.2121254801750183,
      0.3770579397678375,
      -0.2427370250225067,
      0.05732852220535278,
      0.07015406340360641,
      0.1649048775434494,
      0.3053119480609894,
      0.19927136600017548,
      -0.08959738165140152,
      0.0932612195611,
      -0.0511753112077713,
      -0.0028472531121224165,
      -0.4366671144962311,
      0.1841466724872589,
      -0.5872382521629333,
      -0.08037527650594711,
      -0.04962308332324028
    ],
    [
      -0.10654567927122116,
      0.013412654399871826,
      -0.37360504269599915,
      -0.2578834295272827,
      -0.12319076061248779,
      -0.11893197149038315,
      -0.0519753023982048,
      -0.156707763671875,
      -0.15605223178863525,
      0.03833184391260147,
      0.2683107852935791,
      0.14515018463134766,
      0.0330364927649498,
      -0.08908004313707352,
      -0.4348837435245514,
      0.16801674664020538,
      -0.0638798400759697,
      -0.04286661744117737,
      -0.09164169430732727,
      -0.03343101963400841,
      -0.7903246283531189,
      -0.9231699705123901,
      -0.008049167692661285,
      0.14797542989253998,
      0.1729792207479477,
      -0.2009250372648239,
      -0.04937955364584923,
      -0.528952956199646,
      -0.3979288637638092,
      0.11992164701223373,
      0.15496978163719177,
      -0.0836569219827652,
      -0.20301105082035065,
      -0.09491554647684097,
      -1.0249977111816406,
      -0.05403196066617966,
      -0.05977265536785126,
      0.4424494802951813,
      0.09151183813810349,
      -0.20950742065906525,
      -0.027751153334975243,
      -0.05498635768890381,
      -0.06923612207174301,
      -0.1269369125366211,
      -0.2807946801185608,
      -0.7744844555854797,
      -0.9821293354034424,
      -0.11631395667791367,
      -0.0892443135380745
    ],
    [
      -0.0665072575211525,
      -0.004521125927567482,
      -0.598366916179657,
      -0.4080197513103485,
      -1.0196475982666016,
      -0.09107210487127304,
      -0.07974978536367416,
      0.023332564160227776,
      -0.09548953175544739,
      -0.03140263631939888,
      0.21235966682434082,
      -0.571786642074585,
      0.04706928879022598,
      -0.02714572101831436,
      -0.48767706751823425,
      -0.1513376235961914,
      0.12158777564764023,
      0.15792769193649292,
      0.016884390264749527,
      0.16161201894283295,
      -0.4911186099052429,
      -0.9940548539161682,
      0.10611177980899811,
      -0.33781155943870544,
      -0.11314917355775833,
      -0.45129671692848206,
      0.40520793199539185,
      -0.42762961983680725,
      -1.0862261056900024,
      -0.22084076702594757,
      0.27562040090560913,
      -0.21864844858646393,
      -0.7607147693634033,
      -0.5833479166030884,
      -0.4936539828777313,
      -0.040633633732795715,
      -0.06505086272954941,
      -0.41220879554748535,
      0.24223417043685913,
      -0.19880443811416626,
      -0.10176415741443634,
      0.03399312496185303,
      -0.09367635846138,
      -0.002336689969524741,
      -0.9850003719329834,
      -0.5771664977073669,
      -0.8853106498718262,
      0.0332479327917099,
      -0.003435763530433178
    ],
    [
      0.015565899200737476,
      -0.18761394917964935,
      0.8570166826248169,
      0.027480194345116615,
      0.4859720468521118,
      -0.02362157590687275,
      -0.11787483096122742,
      -0.05616141855716705,
      -0.15264710783958435,
      -0.5888522267341614,
      0.3994331359863281,
      0.01737632416188717,
      -0.03306936100125313,
      -0.11706197261810303,
      0.05187210813164711,
      -0.13746480643749237,
      0.15894834697246552,
      -0.05397959053516388,
      -0.1885565221309662,
      0.20244747400283813,
      -0.82737797498703,
      0.020660309121012688,
      -0.2650839388370514,
      0.012693619355559349,
      -0.010668212547898293,
      0.006900283973664045,
      -0.0830756202340126,
      -0.007890871725976467,
      0.15265746414661407,
      -0.1693478375673294,
      0.006821297574788332,
      -0.009157891385257244,
      -0.2644694745540619,
      0.18867962062358856,
      -0.7382476925849915,
      -0.036955576390028,
      -0.11830854415893555,
      -0.16274450719356537,
      0.06416723877191544,
      0.07982048392295837,
      -0.039405401796102524,
      0.005443429108709097,
      -0.13501012325286865,
      -0.12319456040859222,
      -0.09942886978387833,
      -0.20442596077919006,
      -0.335938036441803,
      -0.16646748781204224,
      -0.0849207416176796
    ],
    [
      -0.0671333596110344,
      0.08968762308359146,
      -0.3123435974121094,
      0.3356951177120209,
      -0.31664028763771057,
      -0.01373209711164236,
      -0.039937861263751984,
      0.07412967830896378,
      -0.046033285558223724,
      0.3683643043041229,
      0.033860400319099426,
      0.2377633899450302,
      0.07675094157457352,
      -0.006500967312604189,
      -0.27165183424949646,
      0.31286799907684326,
      0.0014323240611702204,
      0.1689920723438263,
      -0.05690333619713783,
      0.17938366532325745,
      -0.29823189973831177,
      0.30307960510253906,
      -0.5273545980453491,
      0.1636372208595276,
      -0.4507465660572052,
      0.09755299240350723,
      -0.4510906934738159,
      0.4848155975341797,
      -0.4978596270084381,
      0.35047826170921326,
      -0.13355419039726257,
      0.3955940902233124,
      -0.02201138623058796,
      0.448904812335968,
      -0.4896877408027649,
      -0.017761293798685074,
      0.0043215141631662846,
      0.3601347506046295,
      0.09349128603935242,
      -0.030481699854135513,
      0.08884679526090622,
      -0.04462249577045441,
      0.08703368157148361,
      0.004459085408598185,
      -0.6927987337112427,
      0.6425597071647644,
      0.048584263771772385,
      -0.08830208331346512,
      -0.09162372350692749
    ],
    [
      0.02610967494547367,
      -0.02983725629746914,
      -0.6219974756240845,
      -0.6416176557540894,
      -0.8022027015686035,
      0.03638278692960739,
      -0.08287414908409119,
      -0.09917159378528595,
      -0.020640159025788307,
      -0.26455602049827576,
      -0.3211224675178528,
      -0.15806694328784943,
      -0.03099736012518406,
      -0.15805794298648834,
      -0.30971643328666687,
      -0.17396123707294464,
      0.018711699172854424,
      -0.5991780161857605,
      -0.07458049803972244,
      -0.2232259064912796,
      -0.7543475031852722,
      -0.5771063566207886,
      -0.09879497438669205,
      -0.39292359352111816,
      0.3919699490070343,
      -0.2925046682357788,
      -0.5361634492874146,
      -0.8064000606536865,
      -0.5111503005027771,
      0.060077257454395294,
      -0.11156586557626724,
      -0.514342725276947,
      0.07930982857942581,
      -0.5954765677452087,
      -0.5941953659057617,
      -0.05266229435801506,
      -0.15100465714931488,
      -0.3047267198562622,
      -0.11181499809026718,
      -0.2592232823371887,
      -0.018120715394616127,
      -0.1169680505990982,
      0.03824186325073242,
      -0.08872918784618378,
      -0.3986130952835083,
      -0.9581848382949829,
      -0.8379673957824707,
      -0.09045818448066711,
      -0.09041870385408401
    ],
    [
      -0.08122149854898453,
      -0.03979705274105072,
      0.33538365364074707,
      0.3876396119594574,
      0.5173149108886719,
      -0.042533837258815765,
      -0.015513179823756218,
      0.06277071684598923,
      0.040254972875118256,
      0.45751580595970154,
      0.2256377637386322,
      0.1405021995306015,
      -0.1226833239197731,
      -0.006876073312014341,
      0.14462442696094513,
      0.23442654311656952,
      0.30202481150627136,
      0.45254868268966675,
      0.30889028310775757,
      -0.004465560894459486,
      0.2531423270702362,
      -0.3237970173358917,
      0.019444910809397697,
      -0.31767693161964417,
      -0.2257792204618454,
      -0.21856065094470978,
      0.3232532739639282,
      0.19385413825511932,
      -0.2780804932117462,
      -0.40426939725875854,
      -0.4146168828010559,
      -0.349853515625,
      0.04737525060772896,
      -0.2423982471227646,
      0.0912037193775177,
      0.05613077059388161,
      -0.1590377688407898,
      0.12081674486398697,
      -0.42396080493927,
      -0.05085146427154541,
      -0.06845495104789734,
      -0.036485396325588226,
      0.028081342577934265,
      0.04024742543697357,
      -0.5411337614059448,
      -0.3636866807937622,
      -0.019340554252266884,
      -0.02292332425713539,
      -0.05837395414710045
    ],
    [
      -0.1420052945613861,
      -0.14477208256721497,
      -0.28719794750213623,
      -0.2933157980442047,
      -0.5131012797355652,
      -0.20988035202026367,
      -0.22783681750297546,
      -0.2624098062515259,
      -0.16187256574630737,
      0.1597897708415985,
      0.1446661502122879,
      0.04077254608273506,
      -0.2511674761772156,
      -0.15910577774047852,
      -0.32759734988212585,
      0.0949222519993782,
      -0.565674364566803,
      -0.1266423612833023,
      -0.20064695179462433,
      0.05160706862807274,
      -0.32237210869789124,
      -0.08322669565677643,
      -0.04361511766910553,
      -0.08502823114395142,
      0.16417071223258972,
      -0.16707029938697815,
      0.03498057648539543,
      -0.3668431341648102,
      -0.39888903498649597,
      0.008374742232263088,
      -0.5848296880722046,
      0.29621177911758423,
      -0.07474248111248016,
      0.11318403482437134,
      0.12134397029876709,
      -0.2507328987121582,
      -0.04362308233976364,
      -0.36966970562934875,
      -0.018452977761626244,
      -0.12784554064273834,
      -0.2274141013622284,
      -0.12628912925720215,
      -0.2598343789577484,
      -0.1275770366191864,
      -0.6227501630783081,
      -0.44212135672569275,
      -0.25279051065444946,
      -0.1693509817123413,
      -0.1484593152999878
    ],
    [
      -0.0483914278447628,
      -0.11177419126033783,
      0.1709100902080536,
      -0.15219257771968842,
      0.1387907862663269,
      -0.08510240912437439,
      -0.03420782461762428,
      0.0738823413848877,
      -0.018225017935037613,
      -0.170970618724823,
      0.010688086971640587,
      -0.10457245260477066,
      0.011850533075630665,
      0.04279923811554909,
      0.40921103954315186,
      -0.10328067094087601,
      -0.0611964650452137,
      -0.097684845328331,
      0.016596736386418343,
      0.011834806762635708,
      0.12176606059074402,
      -0.29427433013916016,
      0.16935299336910248,
      -0.13434840738773346,
      0.15864886343479156,
      -0.12636327743530273,
      0.14103075861930847,
      -0.19704800844192505,
      0.4098655879497528,
      -0.32646092772483826,
      0.00724646495655179,
      -0.10462602227926254,
      0.059097424149513245,
      -0.13588528335094452,
      0.3209020495414734,
      0.06601402163505554,
      0.05385974422097206,
      -0.18234822154045105,
      -0.01942911557853222,
      -0.17871922254562378,
      -0.08541177213191986,
      0.08125954866409302,
      0.09240464866161346,
      0.06364667415618896,
      0.39899706840515137,
      -0.23957842588424683,
      0.2089422196149826,
      -0.048379722982645035,
      0.026820367202162743
    ],
    [
      -0.0952330157160759,
      -0.011223158799111843,
      -0.1365082710981369,
      -0.10596626251935959,
      0.02433534897863865,
      0.019155357033014297,
      -0.10576315224170685,
      -0.12433589994907379,
      -0.11502546072006226,
      0.0010259714908897877,
      0.19976727664470673,
      -0.027522169053554535,
      0.035314273089170456,
      0.0020110798068344593,
      -0.39673539996147156,
      0.24068833887577057,
      -0.11653716117143631,
      -0.07265781611204147,
      -0.08145784586668015,
      0.32093533873558044,
      0.31644323468208313,
      -0.2587074339389801,
      0.7141013145446777,
      0.10682694613933563,
      0.10833332687616348,
      0.01925968937575817,
      -1.2347322702407837,
      -2.1521480083465576,
      -0.4207589626312256,
      -0.020201437175273895,
      -0.22607100009918213,
      -0.17685566842556,
      -0.07155852019786835,
      -0.6271979212760925,
      -1.6994677782058716,
      -0.01772473379969597,
      0.07825878262519836,
      0.04189741611480713,
      0.14265239238739014,
      -0.25594496726989746,
      -0.062452856451272964,
      -0.012272289954125881,
      -0.10698327422142029,
      -0.0838327407836914,
      -0.5122281908988953,
      -0.3601987063884735,
      -0.2602437436580658,
      -0.13919565081596375,
      -0.13692037761211395
    ],
    [
      -0.11971508711576462,
      0.009836755692958832,
      -0.5924563407897949,
      -0.7501361966133118,
      -0.5183859467506409,
      0.03841026872396469,
      -0.01861158199608326,
      -0.027714546769857407,
      -0.13068336248397827,
      -0.30474773049354553,
      0.1748134344816208,
      -0.2875417470932007,
      -0.12354402244091034,
      -0.15346279740333557,
      -0.43473607301712036,
      -0.25642403960227966,
      -0.3940710723400116,
      -0.3634856641292572,
      0.015562564134597778,
      -0.5543548464775085,
      -0.9077457189559937,
      -0.44757115840911865,
      0.2417912632226944,
      -0.43225914239883423,
      0.2101089060306549,
      -0.3097790777683258,
      -0.19663067162036896,
      -0.038630470633506775,
      -0.5303636193275452,
      0.22846759855747223,
      -0.6852290630340576,
      -0.25752678513526917,
      0.17732572555541992,
      -0.6676003336906433,
      -0.7201089859008789,
      0.02134043164551258,
      0.0661998838186264,
      -0.15604226291179657,
      0.3630286753177643,
      -0.8028689622879028,
      -0.11036413162946701,
      -0.06924307346343994,
      -0.010137781500816345,
      -0.027264736592769623,
      -0.3914465308189392,
      -0.15233169496059418,
      -0.819787859916687,
      -0.04674601927399635,
      -0.07127887010574341
    ],
    [
      -0.08782696723937988,
      -0.007495380472391844,
      -0.5081200003623962,
      -1.0717612504959106,
      -0.2774273157119751,
      -0.0720948874950409,
      -0.11183492839336395,
      -0.10274790227413177,
      0.007091678213328123,
      -0.006941535975784063,
      -0.07690618932247162,
      -1.1489132642745972,
      -0.07619976997375488,
      -0.12116040289402008,
      -0.18482860922813416,
      -0.49845021963119507,
      -0.41819635033607483,
      0.15277010202407837,
      -0.5903942584991455,
      -0.09245602786540985,
      -0.10693549364805222,
      -1.0022724866867065,
      0.21652071177959442,
      -0.25104060769081116,
      -0.163386732339859,
      0.049208395183086395,
      -0.4523731768131256,
      -0.20059430599212646,
      -0.8579720854759216,
      -0.16552512347698212,
      -0.20057964324951172,
      -0.33285021781921387,
      -0.24293489754199982,
      0.1474817544221878,
      -0.5875398516654968,
      0.048974912613630295,
      -0.028524845838546753,
      -0.0074294982478022575,
      0.14804531633853912,
      -0.24789871275424957,
      0.06082064285874367,
      -0.12856215238571167,
      -0.07831384241580963,
      -0.03676002845168114,
      -0.6504186391830444,
      -0.7478706240653992,
      -0.3335273563861847,
      -0.06013946607708931,
      -0.002000417560338974
    ],
    [
      9.673826571088284e-05,
      0.07261176407337189,
      0.393250048160553,
      0.5624551177024841,
      0.03887317702174187,
      -0.019824054092168808,
      -0.08391572535037994,
      -0.12958583235740662,
      0.07943607866764069,
      -0.12235929816961288,
      0.48853930830955505,
      -0.7756161093711853,
      -0.028302788734436035,
      -0.09385471045970917,
      -0.1546519547700882,
      0.4282186031341553,
      0.11215430498123169,
      0.24292133748531342,
      -0.5006389617919922,
      0.24185806512832642,
      -0.5219376683235168,
      -1.1939791440963745,
      -0.11540467292070389,
      0.18551254272460938,
      0.07716324925422668,
      -0.2668793201446533,
      -0.513975977897644,
      -0.9748664498329163,
      -0.7850305438041687,
      0.2391102910041809,
      -0.4239775836467743,
      0.13606879115104675,
      -0.3485789895057678,
      0.19411702454090118,
      -0.7910642623901367,
      -0.10915108770132065,
      -0.1058133915066719,
      -1.1673216819763184,
      0.4183463156223297,
      -0.33142009377479553,
      -0.03381098061800003,
      0.03603139519691467,
      0.09043465554714203,
      0.03100244328379631,
      -0.6215721964836121,
      -0.07468937337398529,
      -0.14576341211795807,
      -0.026315104216337204,
      -0.10424929112195969
    ],
    [
      -0.018379099667072296,
      0.060408029705286026,
      0.016793161630630493,
      0.03499165177345276,
      0.11449721455574036,
      0.06485945731401443,
      0.1093783751130104,
      -0.09057490527629852,
      -0.014746849425137043,
      -0.18472635746002197,
      0.048109423369169235,
      -0.0011344489175826311,
      -0.02592213824391365,
      0.0540602020919323,
      -0.09976662695407867,
      0.4358524978160858,
      -0.1967381238937378,
      0.28088679909706116,
      0.12554112076759338,
      -0.13513301312923431,
      0.3511132299900055,
      0.11187973618507385,
      0.21707786619663239,
      0.015331454575061798,
      0.11476147174835205,
      0.10328404605388641,
      0.0978056788444519,
      -0.20387578010559082,
      0.05756261199712753,
      -0.12146934121847153,
      -0.12817397713661194,
      -0.4186120927333832,
      0.13287824392318726,
      -0.3952524960041046,
      0.4578211009502411,
      -0.018896032124757767,
      0.051221612840890884,
      0.13903257250785828,
      -0.4205232560634613,
      0.2932222783565521,
      0.06363478302955627,
      0.03777749091386795,
      -0.04401654005050659,
      0.10732447355985641,
      -0.30625301599502563,
      0.14928331971168518,
      -0.19486472010612488,
      -0.03295467048883438,
      0.08193866908550262
    ],
    [
      0.11353590339422226,
      -0.0016784599283710122,
      -0.006796967703849077,
      -0.08889468759298325,
      -0.03502669930458069,
      -0.0009998849127441645,
      -0.0022205528803169727,
      0.10573592036962509,
      0.1180645152926445,
      0.03267063573002815,
      0.26957955956459045,
      0.08381485193967819,
      0.056531697511672974,
      -0.009826604276895523,
      0.13321451842784882,
      -0.11118292063474655,
      0.04071858525276184,
      -0.04197890684008598,
      0.06678339093923569,
      0.08328408002853394,
      0.20310531556606293,
      -0.24833263456821442,
      -0.0782536044716835,
      -0.019480204209685326,
      -0.18999363481998444,
      0.14423251152038574,
      0.23158295452594757,
      0.0783945769071579,
      0.14160609245300293,
      0.2537592649459839,
      -0.3820437788963318,
      0.09238661825656891,
      0.08970557153224945,
      0.014197634533047676,
      -0.001428360235877335,
      0.03166479244828224,
      0.12100522965192795,
      -0.11913296580314636,
      0.0977516919374466,
      0.07720178365707397,
      0.00413656048476696,
      0.08895818144083023,
      0.03113279864192009,
      0.07845651358366013,
      -0.022734371945261955,
      0.1056680679321289,
      0.10293213278055191,
      0.015509667806327343,
      0.1256120353937149
    ],
    [
      -0.07728998363018036,
      -0.06856657564640045,
      -0.2468799352645874,
      -0.5363497734069824,
      0.07005676627159119,
      0.03652641549706459,
      -0.10624635964632034,
      -0.11856725066900253,
      -0.02398468181490898,
      -1.522673487663269,
      -0.997683048248291,
      0.08426492661237717,
      0.024120882153511047,
      -0.021390855312347412,
      -0.12570756673812866,
      -0.8195515275001526,
      -0.3848668038845062,
      -0.42244455218315125,
      -0.2593209743499756,
      0.0368942953646183,
      -0.266043484210968,
      -0.7257409691810608,
      -0.4377056360244751,
      -0.29309940338134766,
      0.2235267162322998,
      0.10102968662977219,
      0.3718876540660858,
      0.09596183151006699,
      -0.5724807381629944,
      0.3494355082511902,
      -0.3542461693286896,
      0.2784671187400818,
      -0.004262986592948437,
      0.499117374420166,
      -0.013744383119046688,
      -0.13960623741149902,
      0.004792018327862024,
      -0.16736319661140442,
      0.4370662271976471,
      0.28695425391197205,
      0.039113033562898636,
      0.017478618770837784,
      -0.14062321186065674,
      -0.155406653881073,
      -0.6255763173103333,
      -0.3167559802532196,
      -0.2535470724105835,
      -0.13935810327529907,
      0.014552420005202293
    ],
    [
      0.04354582726955414,
      0.06376445293426514,
      -0.8579481244087219,
      -0.31707146763801575,
      -1.4441664218902588,
      -0.03113267756998539,
      0.042794354259967804,
      -0.0779956728219986,
      -0.06113731861114502,
      0.05457034707069397,
      0.2829548120498657,
      0.000796147040091455,
      0.09213520586490631,
      -0.06519278883934021,
      -0.7914316654205322,
      -0.23925234377384186,
      0.1295623630285263,
      0.059923529624938965,
      0.1737757921218872,
      -0.08987277746200562,
      -1.0757532119750977,
      -0.5349971055984497,
      0.11686044186353683,
      0.23278933763504028,
      0.21733608841896057,
      -0.07837311923503876,
      0.1725253462791443,
      -0.5148729085922241,
      -1.1160045862197876,
      -0.20373781025409698,
      0.1687883734703064,
      -0.10868018120527267,
      0.06921877712011337,
      -0.05439069867134094,
      -1.1157658100128174,
      -0.10532605648040771,
      -0.053937964141368866,
      -0.08748006820678711,
      -0.04356490075588226,
      -0.12138459086418152,
      -0.12011133134365082,
      0.021060287952423096,
      -0.10916794836521149,
      0.023206308484077454,
      -1.6165122985839844,
      0.20716355741024017,
      -1.0230413675308228,
      0.07202059030532837,
      -0.019010599702596664
    ],
    [
      -0.0334346778690815,
      0.054946351796388626,
      -0.831610918045044,
      -0.3688924312591553,
      -1.0905896425247192,
      -0.07506153732538223,
      0.06834767013788223,
      -0.11393842846155167,
      0.02722379006445408,
      -0.5936142206192017,
      0.25499480962753296,
      -0.2318975329399109,
      -0.12007003277540207,
      -0.03184426575899124,
      -1.4336916208267212,
      -0.18628257513046265,
      0.18494164943695068,
      -0.01809835433959961,
      0.2086615115404129,
      -0.522433340549469,
      -1.3018373250961304,
      -1.4793249368667603,
      -0.24042999744415283,
      -0.2470296174287796,
      0.25554946064949036,
      -0.02641761302947998,
      0.21502374112606049,
      -0.31889814138412476,
      -1.2663301229476929,
      -0.34073132276535034,
      -0.04965699464082718,
      -0.09344031661748886,
      0.2903221845626831,
      -0.37704789638519287,
      -1.1650384664535522,
      0.060398172587156296,
      -0.10399474948644638,
      -0.4195449948310852,
      0.18468374013900757,
      -0.5321740508079529,
      0.04343624785542488,
      -0.017359791323542595,
      -0.12881731986999512,
      -0.039780393242836,
      -0.8122424483299255,
      -0.49744075536727905,
      -0.7925926446914673,
      0.05855717882514,
      -0.08904867619276047
    ],
    [
      -0.10437963157892227,
      -0.11586575955152512,
      -0.64326411485672,
      -1.4709420204162598,
      -0.6631239056587219,
      -0.05767340585589409,
      -0.02846347913146019,
      0.014019508846104145,
      0.0383821465075016,
      -0.7357866764068604,
      -0.18103067576885223,
      -0.0722162127494812,
      -0.12665803730487823,
      -0.006869324948638678,
      -1.0672909021377563,
      -0.2573658525943756,
      0.3231206238269806,
      -0.013706483878195286,
      0.06134949252009392,
      0.008504662662744522,
      -0.07188442349433899,
      -0.35221874713897705,
      0.16580429673194885,
      -0.1335088610649109,
      0.11895578354597092,
      -0.3004191517829895,
      0.44018009305000305,
      0.016728730872273445,
      -0.16483411192893982,
      -0.08906082063913345,
      -0.11536050587892532,
      -0.003450282383710146,
      -0.1718258261680603,
      0.08988998830318451,
      -0.1778820902109146,
      0.013423285447061062,
      -0.05385838821530342,
      -0.19447827339172363,
      0.24809257686138153,
      -0.052774570882320404,
      -0.016085023060441017,
      -0.015087452717125416,
      -0.15495909750461578,
      -0.1610216647386551,
      -0.18696743249893188,
      0.19327910244464874,
      -0.21307829022407532,
      -0.02452078089118004,
      0.03192497789859772
    ],
    [
      0.020696161314845085,
      0.08196552097797394,
      -0.014350923709571362,
      0.09860147535800934,
      -0.13157396018505096,
      0.010516591370105743,
      0.10138431936502457,
      -0.09602270275354385,
      0.04692357778549194,
      -0.13284814357757568,
      0.3884192705154419,
      0.22949273884296417,
      -0.1052246168255806,
      -0.0916532501578331,
      -0.6101647019386292,
      0.14897724986076355,
      -0.18023063242435455,
      0.24145780503749847,
      -0.05248367413878441,
      0.12191739678382874,
      -0.0680662989616394,
      0.09154613316059113,
      -0.2925208806991577,
      0.14016084372997284,
      -0.23984265327453613,
      0.19525618851184845,
      0.30551180243492126,
      -0.2608770728111267,
      -0.6434109210968018,
      0.08648235350847244,
      -0.26307374238967896,
      0.14877760410308838,
      -0.6164447665214539,
      -0.4912167489528656,
      -0.27781733870506287,
      -0.006773547735065222,
      -0.06682561337947845,
      -0.42704954743385315,
      0.31971240043640137,
      -0.5224236845970154,
      0.03528096526861191,
      0.0932912603020668,
      -0.07180309295654297,
      -0.11265958100557327,
      0.12358332425355911,
      -0.22377561032772064,
      -0.09201513230800629,
      -0.024698393419384956,
      -0.07166358083486557
    ],
    [
      -0.07121343165636063,
      0.11071749776601791,
      0.20275361835956573,
      -0.07536209374666214,
      0.25759750604629517,
      -0.06275633722543716,
      0.0394350104033947,
      -0.08474216610193253,
      0.015949634835124016,
      0.0072090658359229565,
      0.34253549575805664,
      -0.07872214913368225,
      0.05239768326282501,
      0.05660851299762726,
      0.37068644165992737,
      0.11163755506277084,
      -0.027030909433960915,
      0.030853306874632835,
      -0.028642384335398674,
      0.0009034075774252415,
      0.13702619075775146,
      -0.184920996427536,
      0.05544700101017952,
      0.10780783742666245,
      0.18485669791698456,
      -0.09320752322673798,
      0.06076302006840706,
      0.08675935864448547,
      0.12246572971343994,
      -0.0033604148775339127,
      0.1459737867116928,
      -0.31728821992874146,
      0.17929336428642273,
      -0.33449530601501465,
      0.13140824437141418,
      0.10080813616514206,
      0.07079846411943436,
      0.019884787499904633,
      -0.42269977927207947,
      -0.3416539132595062,
      0.04222318157553673,
      -0.016527222469449043,
      0.03871173784136772,
      0.07519897073507309,
      -1.0978864431381226,
      -1.1568126678466797,
      -0.3461390435695648,
      -0.001623955788090825,
      0.10082896798849106
    ],
    [
      0.05803351104259491,
      -0.019878551363945007,
      -0.37695062160491943,
      -0.10143917798995972,
      -0.2509601414203644,
      0.012447685934603214,
      -0.004189001861959696,
      -0.09717962890863419,
      0.05613242834806442,
      0.22018328309059143,
      0.1399002969264984,
      0.21171174943447113,
      0.08091811835765839,
      -0.10076846927404404,
      -0.47550827264785767,
      0.07535003125667572,
      -0.08350321650505066,
      0.009733756072819233,
      -0.13565996289253235,
      0.37168237566947937,
      -0.47737208008766174,
      -0.40129202604293823,
      0.029301567003130913,
      -0.045526545494794846,
      0.23442766070365906,
      0.22653155028820038,
      0.44112205505371094,
      -0.09754454344511032,
      -0.9923452734947205,
      0.48606055974960327,
      -0.2807067632675171,
      -0.25776955485343933,
      -0.0730287954211235,
      0.2834433615207672,
      -0.25786712765693665,
      -0.08479155600070953,
      -0.1360410749912262,
      0.12663987278938293,
      0.29076671600341797,
      0.4003783166408539,
      -0.09372782707214355,
      -0.07209412753582001,
      -0.12274651974439621,
      -0.010610530152916908,
      -0.1004144549369812,
      -0.28571081161499023,
      -0.5471478700637817,
      0.054023824632167816,
      -0.0391431525349617
    ],
    [
      -0.049765463918447495,
      -0.04932808130979538,
      -0.16170701384544373,
      -0.3307032585144043,
      -0.9689720869064331,
      0.002801777794957161,
      -0.12436841428279877,
      -0.1788175255060196,
      -0.17576582729816437,
      -0.06198185309767723,
      0.37357959151268005,
      -0.2670237720012665,
      -0.033521901816129684,
      -0.07727918773889542,
      0.011765426956117153,
      0.15783928334712982,
      0.0006283040274865925,
      -0.10315613448619843,
      -0.039012618362903595,
      -0.4811576306819916,
      -1.4629175662994385,
      0.20399613678455353,
      0.2547784745693207,
      0.04686696454882622,
      0.09978172183036804,
      0.04475552216172218,
      0.003624564968049526,
      -0.48400020599365234,
      0.257988840341568,
      0.32791370153427124,
      0.003784030908718705,
      -0.23601660132408142,
      -0.40761780738830566,
      -0.7559762001037598,
      -1.1937999725341797,
      -0.14761756360530853,
      -0.023361442610621452,
      0.13529343903064728,
      -0.24938678741455078,
      -1.050899863243103,
      -0.13861219584941864,
      -0.09241556376218796,
      -0.020253391936421394,
      -0.06964795291423798,
      -0.3393993079662323,
      -0.4182189106941223,
      -1.529937744140625,
      -0.03742697834968567,
      -0.18626244366168976
    ],
    [
      0.01834391988813877,
      -0.07721861451864243,
      -0.5138417482376099,
      -0.017491430044174194,
      -0.49249154329299927,
      -0.08297532051801682,
      -0.1472468078136444,
      -0.034532904624938965,
      0.047694556415081024,
      0.10410421341657639,
      0.287182092666626,
      -0.2072061449289322,
      -0.14404267072677612,
      0.05115852504968643,
      -0.5058144330978394,
      -0.03678310662508011,
      -0.4997735619544983,
      0.03229469060897827,
      -0.5701699256896973,
      0.32057201862335205,
      -0.4011440873146057,
      -0.6587796211242676,
      -0.4078865945339203,
      -0.41094955801963806,
      -0.05525227636098862,
      -0.14517444372177124,
      0.3864079415798187,
      -1.2043949365615845,
      -0.25895869731903076,
      -0.49719953536987305,
      -0.2143077850341797,
      -0.38815006613731384,
      -0.027811555191874504,
      -0.19712822139263153,
      -0.4868580996990204,
      -0.10945875197649002,
      -0.09649709612131119,
      -0.42674896121025085,
      -0.42010828852653503,
      -0.47874826192855835,
      -0.06328289210796356,
      -0.131548672914505,
      -0.15256467461585999,
      -0.027771424502134323,
      -0.603259265422821,
      -0.7502505779266357,
      -0.12001725286245346,
      -0.12263365834951401,
      0.011906451545655727
    ],
    [
      -0.2838658094406128,
      -0.12872327864170074,
      -0.06974825263023376,
      0.02738686464726925,
      -0.19242849946022034,
      -0.1854984015226364,
      -0.18756535649299622,
      -0.10343382507562637,
      -0.1875607818365097,
      0.18971486389636993,
      0.04211588576436043,
      0.1273953914642334,
      -0.09717180579900742,
      -0.11497988551855087,
      0.06257946044206619,
      0.18244601786136627,
      -0.32535576820373535,
      -0.18575561046600342,
      -0.24080948531627655,
      0.02068154513835907,
      -0.21875810623168945,
      -0.062057916074991226,
      0.15861694514751434,
      0.003943986725062132,
      -0.10131537914276123,
      -0.1225477010011673,
      0.15825149416923523,
      -0.20854054391384125,
      0.27173641324043274,
      0.11057479679584503,
      -0.1773070991039276,
      0.17757415771484375,
      -0.07410024851560593,
      -0.013334972783923149,
      0.33166682720184326,
      -0.27917420864105225,
      -0.1554923802614212,
      0.14921186864376068,
      0.11431113630533218,
      -0.09828852117061615,
      -0.23154506087303162,
      -0.1419735997915268,
      -0.15659646689891815,
      -0.18756073713302612,
      -0.10856561362743378,
      -0.40372434258461,
      -0.16550393402576447,
      -0.1824667602777481,
      -0.1730986386537552
    ],
    [
      -0.0835808515548706,
      -0.0956205502152443,
      -0.7590667605400085,
      -0.4755208194255829,
      -0.10747171193361282,
      -0.1639210730791092,
      -0.01075921393930912,
      -0.07604867219924927,
      -0.01664159633219242,
      0.3331774175167084,
      0.3852069675922394,
      -0.4241127371788025,
      -0.14335940778255463,
      0.027643710374832153,
      -0.2382824420928955,
      -0.08693115413188934,
      -0.5213402509689331,
      -0.21272559463977814,
      -0.04582254961133003,
      -0.2434813529253006,
      0.1364687830209732,
      -0.5842655301094055,
      0.4369673728942871,
      -0.05646662786602974,
      0.15061059594154358,
      -0.2703211307525635,
      0.39729544520378113,
      -0.41508176922798157,
      -0.35130855441093445,
      0.004943885374814272,
      -0.2819344401359558,
      -0.15890654921531677,
      -0.22956226766109467,
      -0.4589388966560364,
      -0.11829110234975815,
      -0.12145143002271652,
      0.031038787215948105,
      -0.19019365310668945,
      0.27719733119010925,
      -0.5443615317344666,
      -0.04770082235336304,
      0.04967954754829407,
      -0.10346608608961105,
      -0.13225097954273224,
      0.08882732689380646,
      -0.3982921838760376,
      0.3650006055831909,
      -0.14483483135700226,
      0.024877658113837242
    ],
    [
      -0.07318830490112305,
      -0.1860499083995819,
      0.21960175037384033,
      0.12067092955112457,
      0.04817952960729599,
      -0.26914918422698975,
      -0.16358979046344757,
      -0.13678310811519623,
      -0.1559331864118576,
      0.3496565818786621,
      0.011520495638251305,
      0.024524623528122902,
      -0.11115049570798874,
      -0.22197061777114868,
      -0.04240957275032997,
      0.11150779575109482,
      0.0855971947312355,
      0.04457496851682663,
      0.1318255364894867,
      0.21477967500686646,
      0.23803666234016418,
      0.10552380979061127,
      -0.1713748574256897,
      0.26823920011520386,
      0.0162160973995924,
      0.24329090118408203,
      0.04207885265350342,
      0.0878179520368576,
      0.2776593863964081,
      0.10547645390033722,
      0.15608710050582886,
      0.24228864908218384,
      0.0416475348174572,
      -0.06308852881193161,
      0.12257033586502075,
      -0.09414427727460861,
      -0.16255460679531097,
      -0.0029753234703093767,
      0.03054097481071949,
      0.09411162883043289,
      -0.22290745377540588,
      -0.1874423623085022,
      -0.08812679350376129,
      -0.06277422606945038,
      0.07067522406578064,
      0.010245243087410927,
      0.24423260986804962,
      -0.13602904975414276,
      -0.16601905226707458
    ],
    [
      0.08013345301151276,
      0.018431764096021652,
      0.024123091250658035,
      0.002530277706682682,
      0.034143466502428055,
      0.06745631992816925,
      0.030118493363261223,
      0.08908641338348389,
      0.03419502452015877,
      0.010615454986691475,
      0.16783154010772705,
      -0.0005247886874713004,
      0.07324078679084778,
      0.014337679371237755,
      -0.06781395524740219,
      0.08202159404754639,
      0.010113201104104519,
      -0.04109208285808563,
      -0.11710676550865173,
      0.008549418300390244,
      -0.24417875707149506,
      -0.0393734835088253,
      0.0746707022190094,
      0.04524880275130272,
      0.13238872587680817,
      -0.010314012877643108,
      -1.0021742582321167,
      0.6716200113296509,
      -0.2597890794277191,
      -0.07168186455965042,
      -0.0638284981250763,
      0.026899859309196472,
      0.021419405937194824,
      -0.0005654908600263298,
      -0.7027698755264282,
      -0.015323255211114883,
      -0.030946096405386925,
      0.11592737585306168,
      0.2511855959892273,
      -0.11518777906894684,
      0.031655218452215195,
      -0.031954411417245865,
      0.09356382489204407,
      -0.10574624687433243,
      -0.21539925038814545,
      -0.09343400597572327,
      -0.09199152886867523,
      0.07082284986972809,
      -0.022678326815366745
    ],
    [
      -0.05155264958739281,
      -0.16743804514408112,
      -0.39609140157699585,
      0.15350764989852905,
      -0.7043907642364502,
      -0.19944074749946594,
      -0.16277281939983368,
      -0.017076969146728516,
      -0.03246758133172989,
      -0.31915175914764404,
      -0.11936630308628082,
      -0.5764873623847961,
      -0.061638008803129196,
      -0.023797884583473206,
      -0.6650925874710083,
      -0.05906714126467705,
      -0.25556281208992004,
      -0.3834921419620514,
      -0.5386101603507996,
      -0.46737799048423767,
      -0.5449954867362976,
      -0.6518092751502991,
      0.14111506938934326,
      -0.16019879281520844,
      -0.07857226580381393,
      -0.017719391733407974,
      -0.06855971366167068,
      -0.6270263195037842,
      -1.2048306465148926,
      0.2223743498325348,
      -0.0011256077559664845,
      -0.13143309950828552,
      -0.022616319358348846,
      -0.3558197319507599,
      -0.4306650757789612,
      -0.11967574059963226,
      0.011165752075612545,
      -0.0233262050896883,
      0.47594133019447327,
      -0.30682915449142456,
      -0.19275182485580444,
      -0.16217844188213348,
      -0.04660883545875549,
      -0.06308065354824066,
      -0.5047561526298523,
      -0.3797619640827179,
      -0.7357994914054871,
      -0.1859547346830368,
      -0.09141062945127487
    ],
    [
      -0.05178077518939972,
      -0.01879681460559368,
      0.0870852991938591,
      0.07558736205101013,
      0.09491851925849915,
      -0.07411830127239227,
      0.02992757223546505,
      0.12188923358917236,
      0.08137685060501099,
      0.1602594554424286,
      0.2638835906982422,
      0.06215052306652069,
      0.10782833397388458,
      0.07681003212928772,
      0.03383011743426323,
      0.026070736348628998,
      0.2240108996629715,
      0.06011196970939636,
      0.07416606694459915,
      0.11450614780187607,
      0.2884085774421692,
      -0.3575544059276581,
      -0.08263701945543289,
      -0.09721703082323074,
      0.2353053241968155,
      -0.035972096025943756,
      -0.060709401965141296,
      -0.15312781929969788,
      -0.145254448056221,
      -0.0011649426305666566,
      0.07366888225078583,
      0.017211487516760826,
      -0.09384014457464218,
      -0.013356752693653107,
      0.23701822757720947,
      0.12265723943710327,
      0.12339046597480774,
      0.0851253792643547,
      0.04062564671039581,
      -0.022110335528850555,
      0.07228316366672516,
      -0.03440963104367256,
      0.11982777714729309,
      0.015559107065200806,
      0.1397082507610321,
      0.19321680068969727,
      -0.36501893401145935,
      -0.06085444614291191,
      0.09286673367023468
    ],
    [
      -0.0049855574034154415,
      -0.1093616932630539,
      -1.04814612865448,
      -0.49562084674835205,
      -0.9683645963668823,
      -0.0354405976831913,
      0.05092650651931763,
      -0.09674322605133057,
      -0.09940184652805328,
      -0.4485577940940857,
      -0.044474948197603226,
      -0.7269322872161865,
      -0.06745506078004837,
      -0.03330559656023979,
      -0.13991433382034302,
      -0.43115341663360596,
      0.2039368748664856,
      -0.1578759402036667,
      0.26958438754081726,
      -0.49244993925094604,
      -1.3050652742385864,
      -0.3659851551055908,
      0.19731952250003815,
      0.04138471931219101,
      0.266393780708313,
      0.2007012814283371,
      0.032954733818769455,
      -0.4154777526855469,
      0.21803030371665955,
      0.37039363384246826,
      0.05758058279752731,
      -0.09941708296537399,
      0.10595735162496567,
      -0.4369930028915405,
      -1.5215247869491577,
      -0.11522743105888367,
      -0.044209886342287064,
      0.048986274749040604,
      0.19262252748012543,
      -0.8432204127311707,
      -0.11114312708377838,
      0.059588395059108734,
      -0.04783809185028076,
      0.008204135112464428,
      -0.4110349714756012,
      0.0930735170841217,
      -1.3734846115112305,
      -0.0006873078527860343,
      -0.1551591157913208
    ],
    [
      -0.08398208767175674,
      -0.1255730837583542,
      -0.16144730150699615,
      -0.3670038878917694,
      -0.26542380452156067,
      0.01697380654513836,
      0.026070887222886086,
      -0.06965424865484238,
      -0.07004425674676895,
      -0.4698868989944458,
      0.049323923885822296,
      -0.03515163064002991,
      -0.017084920778870583,
      -0.1564086526632309,
      -0.17491690814495087,
      -0.4127468466758728,
      0.04738084599375725,
      -0.15383432805538177,
      -0.5481927990913391,
      -0.31592226028442383,
      -0.5110782980918884,
      -0.4098707437515259,
      0.1993926614522934,
      -0.2736544907093048,
      0.0350722074508667,
      -0.3792230784893036,
      -0.11288116127252579,
      -0.38832318782806396,
      -0.6379864811897278,
      0.11173608154058456,
      -1.2658751010894775,
      0.006938125938177109,
      0.33093249797821045,
      -1.0907368659973145,
      -0.46803048253059387,
      0.04882500320672989,
      -0.11686821281909943,
      0.6297029256820679,
      -0.12934811413288116,
      -0.9513813853263855,
      -0.022674085572361946,
      0.003943680785596371,
      -0.08106263726949692,
      -0.0866779312491417,
      -0.2942887842655182,
      -0.8788934350013733,
      -0.24832430481910706,
      0.015344147570431232,
      -0.09726123511791229
    ],
    [
      -0.06429991126060486,
      0.017285069450736046,
      0.1447056531906128,
      0.2532241642475128,
      0.13623596727848053,
      0.15060973167419434,
      0.08326347172260284,
      0.07863998413085938,
      0.0821075439453125,
      -0.17177999019622803,
      0.02098374255001545,
      0.05165140703320503,
      0.11102110892534256,
      -0.056317463517189026,
      -0.652411937713623,
      -0.43477535247802734,
      -0.7240792512893677,
      0.16039758920669556,
      -0.005455272272229195,
      0.21456652879714966,
      -0.11658427119255066,
      -0.37151896953582764,
      -0.678820013999939,
      -0.4727390706539154,
      0.610814094543457,
      0.18129488825798035,
      0.2822263538837433,
      0.13676324486732483,
      -0.22002598643302917,
      0.14823970198631287,
      -0.3416103720664978,
      0.49127283692359924,
      0.2006273865699768,
      0.246000736951828,
      0.06458524614572525,
      0.009291069582104683,
      0.08309172093868256,
      -0.0970752164721489,
      0.31942230463027954,
      0.3144047260284424,
      0.11122532933950424,
      0.14423906803131104,
      0.1373884230852127,
      0.031512897461652756,
      0.3989737629890442,
      0.1691042184829712,
      0.25220537185668945,
      0.04580548405647278,
      0.004402279853820801
    ],
    [
      -0.026371002197265625,
      -0.023685209453105927,
      0.5673505067825317,
      0.16675607860088348,
      0.4274002015590668,
      0.03397500887513161,
      0.08350863307714462,
      -0.04711116477847099,
      0.017561892047524452,
      -0.5193518400192261,
      -0.019459141418337822,
      -0.32448869943618774,
      0.09328574687242508,
      -0.12854981422424316,
      0.12849237024784088,
      -0.11055802553892136,
      0.036486778408288956,
      -0.20935426652431488,
      -0.025108901783823967,
      -0.1442057341337204,
      0.1258191466331482,
      -0.7222109436988831,
      0.46490901708602905,
      -0.14134594798088074,
      0.3570660948753357,
      -0.2731810212135315,
      0.3202463984489441,
      -0.5600368976593018,
      -0.6000458598136902,
      0.4203808903694153,
      0.07342924177646637,
      0.2639584541320801,
      0.13613276183605194,
      0.3297343850135803,
      -0.07452910393476486,
      -0.08378637582063675,
      0.02860322967171669,
      -0.15372952818870544,
      -0.26775404810905457,
      -0.26815205812454224,
      0.02507149800658226,
      0.02528781071305275,
      -0.005631493870168924,
      0.04986144229769707,
      0.07009420543909073,
      0.29001283645629883,
      0.3817651569843292,
      -0.0632215067744255,
      0.01822412945330143
    ],
    [
      0.05609992519021034,
      0.008601727895438671,
      0.10945753753185272,
      -0.007065860088914633,
      0.06980337202548981,
      0.10250376164913177,
      0.11077678203582764,
      0.0002843800757545978,
      -0.02220432087779045,
      0.07388380169868469,
      -0.10621277242898941,
      -0.10044196248054504,
      0.10671519488096237,
      0.04676615074276924,
      -0.03228076174855232,
      -0.044458817690610886,
      0.018792640417814255,
      -0.11057025194168091,
      -0.099083311855793,
      0.07076515257358551,
      -0.06586017459630966,
      0.02986031025648117,
      -0.0075051430612802505,
      -0.10337980091571808,
      0.0743122547864914,
      -0.05817360430955887,
      0.08256226778030396,
      0.05373804643750191,
      -0.07476933300495148,
      0.09296286106109619,
      -0.09276338666677475,
      0.03774791955947876,
      0.09097900986671448,
      0.04227972403168678,
      0.00423326576128602,
      0.07581619173288345,
      -0.04670606181025505,
      0.04593018442392349,
      0.04055625572800636,
      -0.051072392612695694,
      0.077447809278965,
      0.0033624067436903715,
      0.026822345331311226,
      0.08940452337265015,
      -0.01933956705033779,
      -0.06851497292518616,
      0.010460710152983665,
      0.008545983582735062,
      0.0846463069319725
    ],
    [
      0.10887785255908966,
      0.05507569760084152,
      0.1163254976272583,
      0.06580274552106857,
      0.09666694700717926,
      0.008204773999750614,
      -0.026891285553574562,
      0.04969841614365578,
      0.06331710517406464,
      0.2810993492603302,
      -0.02802424691617489,
      -0.183899387717247,
      0.10653190314769745,
      -0.0857875794172287,
      -0.24364030361175537,
      -0.48903727531433105,
      0.2647671699523926,
      -0.008212885819375515,
      0.08615905791521072,
      -0.10443520545959473,
      -0.26449719071388245,
      0.3884561061859131,
      0.42331185936927795,
      0.2616434395313263,
      0.062363334000110626,
      -0.010317561216652393,
      -0.05498580262064934,
      -0.16046153008937836,
      0.3584049642086029,
      0.5109946131706238,
      -0.12231174856424332,
      0.13518083095550537,
      -0.04762071371078491,
      -0.04282935708761215,
      -0.060488510876894,
      0.03740077465772629,
      0.12194371223449707,
      0.4818635880947113,
      -0.20454710721969604,
      -0.10798947513103485,
      0.024204565212130547,
      0.06950017809867859,
      -0.018588049337267876,
      -0.07545094937086105,
      0.27054721117019653,
      0.27650558948516846,
      -0.027504507452249527,
      -0.052048519253730774,
      0.005820596124976873
    ],
    [
      -0.05600358545780182,
      -0.01882566325366497,
      -0.034510932862758636,
      0.016902202740311623,
      -0.16375483572483063,
      0.08626338094472885,
      0.007903196848928928,
      0.0006996541051194072,
      0.057471588253974915,
      -0.11548139154911041,
      0.16334767639636993,
      0.003358351532369852,
      0.07924041897058487,
      -0.0014385934919118881,
      -0.42428234219551086,
      0.11756285279989243,
      -0.02463713474571705,
      0.018130533397197723,
      -0.14159749448299408,
      0.08466590195894241,
      -0.354844331741333,
      -0.21887975931167603,
      0.14712610840797424,
      -0.06403490155935287,
      0.3222939968109131,
      -0.294325590133667,
      0.42512214183807373,
      -0.506422221660614,
      0.37249234318733215,
      -0.1754104644060135,
      0.1613416224718094,
      -0.24033312499523163,
      -0.01275928970426321,
      -0.27887168526649475,
      0.09584566950798035,
      0.016552532091736794,
      -0.07119082659482956,
      -0.3231649696826935,
      0.16650500893592834,
      -0.35995936393737793,
      0.009864316321909428,
      0.00265125697478652,
      -0.02956894226372242,
      0.036992110311985016,
      0.2685553729534149,
      -0.05829833075404167,
      0.347927063703537,
      -0.10569217801094055,
      0.026972590014338493
    ],
    [
      0.045685190707445145,
      0.044119250029325485,
      -0.2472381442785263,
      -0.3607935607433319,
      0.1893555223941803,
      0.0730176493525505,
      -0.10112354904413223,
      -0.1054118350148201,
      -0.030864929780364037,
      0.013710010796785355,
      0.555184543132782,
      -0.3542446494102478,
      -0.14716851711273193,
      -0.049242399632930756,
      -0.4343535304069519,
      0.17345038056373596,
      -0.2818335294723511,
      -0.5421720743179321,
      -0.2952612340450287,
      -0.04713461548089981,
      -0.39106324315071106,
      -0.35905933380126953,
      -0.05122508853673935,
      -0.16957226395606995,
      -0.6529209017753601,
      -0.23481690883636475,
      0.3585432171821594,
      -0.9513850212097168,
      -0.13933128118515015,
      -0.02214110642671585,
      -0.21398548781871796,
      -0.09500763565301895,
      -0.3272802531719208,
      -0.19084297120571136,
      -0.5666339993476868,
      0.05854027718305588,
      -0.12372757494449615,
      0.05217999964952469,
      -0.21019582450389862,
      -0.15047362446784973,
      -0.10031387954950333,
      0.015429520979523659,
      -0.06122417747974396,
      -0.1346285343170166,
      -0.12296788394451141,
      -0.7728012800216675,
      -0.7598862051963806,
      -0.009073604829609394,
      -0.03585295006632805
    ],
    [
      -0.09613459557294846,
      -0.023787183687090874,
      -0.6393806338310242,
      -0.1320556253194809,
      -0.5652507543563843,
      -0.04749302193522453,
      0.0925947055220604,
      0.030916236340999603,
      -0.016793156042695045,
      0.3023931086063385,
      0.2506368160247803,
      -0.24421396851539612,
      -0.07138553261756897,
      0.10726379603147507,
      -1.0810116529464722,
      -0.2812800109386444,
      -0.19570612907409668,
      -0.11740928888320923,
      0.7315812706947327,
      0.23214395344257355,
      -0.18745437264442444,
      -0.36592647433280945,
      0.16489547491073608,
      -0.30871063470840454,
      0.2351875901222229,
      0.02854311652481556,
      0.17706437408924103,
      -0.14862924814224243,
      -0.5263454914093018,
      -0.8686045408248901,
      -0.823761522769928,
      -0.3240926265716553,
      -0.06749863922595978,
      0.17407077550888062,
      -0.30620989203453064,
      0.03994939848780632,
      0.0659971833229065,
      -0.5215482115745544,
      -0.30944493412971497,
      0.22069618105888367,
      0.07595355808734894,
      -0.026419855654239655,
      0.04549606144428253,
      0.074617400765419,
      -0.7360300421714783,
      -1.2078204154968262,
      -0.07905712723731995,
      -0.07647094130516052,
      0.05340448394417763
    ],
    [
      -0.25168588757514954,
      -0.09648874402046204,
      -0.13307155668735504,
      -0.23385120928287506,
      0.872241735458374,
      -0.07309368997812271,
      -0.22249118983745575,
      -0.17622394859790802,
      -0.11121128499507904,
      -0.2933041751384735,
      -0.06306742131710052,
      -0.0038616089150309563,
      -0.08033538609743118,
      -0.19200561940670013,
      0.6280268430709839,
      -0.4874934256076813,
      -0.4473138153553009,
      -0.31215208768844604,
      -0.13757401704788208,
      -0.06405238807201385,
      0.5913721323013306,
      -0.3836005926132202,
      0.09231525659561157,
      -0.04772532731294632,
      0.6925867199897766,
      -0.19681647419929504,
      0.6948041915893555,
      0.2395804077386856,
      -0.15972661972045898,
      0.508090078830719,
      -0.39240822196006775,
      0.2135002315044403,
      0.004534260835498571,
      0.09706155210733414,
      0.27251768112182617,
      -0.22314079105854034,
      -0.24716034531593323,
      0.15308240056037903,
      0.15120463073253632,
      -0.06987220793962479,
      -0.15092833340168,
      -0.15179772675037384,
      -0.09455310553312302,
      -0.20054076611995697,
      0.24588939547538757,
      -0.006029697135090828,
      0.7683539986610413,
      -0.1253160834312439,
      -0.26047852635383606
    ],
    [
      -0.18590569496154785,
      -0.14032307267189026,
      -0.18714727461338043,
      -0.1800343096256256,
      -0.35369381308555603,
      -0.19272777438163757,
      -0.23649507761001587,
      -0.10253231972455978,
      -0.028369804844260216,
      -0.18459054827690125,
      0.2981492877006531,
      -0.005440146662294865,
      -0.11501692980527878,
      -0.22094208002090454,
      -0.1847977489233017,
      0.13231275975704193,
      0.06122884154319763,
      0.01105484738945961,
      -0.10185328125953674,
      0.052446573972702026,
      -0.41552984714508057,
      -0.22779159247875214,
      0.5683666467666626,
      0.12891945242881775,
      0.034062109887599945,
      -0.09416766464710236,
      0.03632310777902603,
      -0.17759466171264648,
      -0.12388742715120316,
      0.48699820041656494,
      0.1731053739786148,
      0.1465822458267212,
      0.10900340974330902,
      0.21669328212738037,
      -0.35963311791419983,
      -0.21727678179740906,
      -0.10544652491807938,
      0.3171190321445465,
      0.2896953523159027,
      0.2791198194026947,
      -0.2210395336151123,
      -0.1354067623615265,
      -0.1166224256157875,
      -0.18737508356571198,
      -0.3077292740345001,
      -0.17558063566684723,
      -0.37387096881866455,
      -0.17700502276420593,
      -0.23908239603042603
    ],
    [
      -0.03918418288230896,
      -0.0650416910648346,
      -0.1371309459209442,
      -0.02142847329378128,
      -0.2727399468421936,
      -0.10282443463802338,
      -0.09060470759868622,
      -0.07835617661476135,
      -0.12412184476852417,
      0.18381741642951965,
      0.5669770240783691,
      -0.08480188995599747,
      -0.11676743626594543,
      0.01765022613108158,
      -0.06874105334281921,
      0.3797280490398407,
      0.033982157707214355,
      0.09985209256410599,
      0.10324977338314056,
      0.18084149062633514,
      -0.18070462346076965,
      -0.22147513926029205,
      0.544843852519989,
      -0.00374831585213542,
      0.19495688378810883,
      0.00538743007928133,
      -0.06579344719648361,
      -0.6308541297912598,
      -0.22611649334430695,
      0.08157910406589508,
      0.14972898364067078,
      -0.3776269555091858,
      -0.10090196132659912,
      -1.2393087148666382,
      -2.7566299438476562,
      -0.059822820127010345,
      0.060908135026693344,
      0.04202519357204437,
      -0.021015269681811333,
      0.2534896433353424,
      -0.05116512253880501,
      -0.0205849539488554,
      0.011792099103331566,
      -0.14832207560539246,
      -1.0244157314300537,
      -0.7301511764526367,
      0.13241682946681976,
      0.07052965462207794,
      -0.0293609406799078
    ],
    [
      0.01967478170990944,
      0.08169876784086227,
      -0.09106878936290741,
      -0.23611871898174286,
      -0.20677374303340912,
      -0.058789558708667755,
      0.04507828131318092,
      -0.06858765333890915,
      -0.08391768485307693,
      0.28103169798851013,
      0.8590726852416992,
      0.2079060971736908,
      0.033472880721092224,
      0.08715140074491501,
      -0.2376105934381485,
      -0.090003602206707,
      -0.18295837938785553,
      -0.2834731936454773,
      0.027338823303580284,
      0.20148077607154846,
      -0.237506702542305,
      -0.47463661432266235,
      0.45924803614616394,
      0.21315455436706543,
      0.14387616515159607,
      -0.18701481819152832,
      0.3136429488658905,
      -0.519239068031311,
      -0.14772933721542358,
      0.03119726851582527,
      0.11388132721185684,
      -0.31816795468330383,
      0.1449458748102188,
      -0.216465026140213,
      -1.0810413360595703,
      -0.006093272939324379,
      -0.019802208989858627,
      0.44489529728889465,
      0.443980872631073,
      -0.31775858998298645,
      -0.08402404934167862,
      0.07937047630548477,
      -0.01611431874334812,
      -0.09052250534296036,
      -1.2492759227752686,
      -0.7983270287513733,
      -0.4459664225578308,
      -0.09251358360052109,
      0.08609135448932648
    ],
    [
      -0.08631023019552231,
      -0.08324363082647324,
      -0.05430511385202408,
      0.19202792644500732,
      -0.23262928426265717,
      -0.04525601491332054,
      0.0174806397408247,
      0.00189571687951684,
      -0.05539236590266228,
      -0.042698826640844345,
      -0.43244117498397827,
      -0.014529031701385975,
      -0.006677103694528341,
      -0.04382374510169029,
      0.32500404119491577,
      -0.09255832433700562,
      0.08407526463270187,
      -0.057286642491817474,
      -0.05481579154729843,
      -0.06850361824035645,
      0.00033762044040486217,
      -0.0941118597984314,
      0.031231490895152092,
      -0.019567282870411873,
      -0.2574823200702667,
      -0.0399550125002861,
      -0.25039222836494446,
      0.12747155129909515,
      0.558453381061554,
      -0.28851211071014404,
      0.257101833820343,
      0.01705971360206604,
      -0.05728961154818535,
      0.05065850540995598,
      -0.06669057160615921,
      -0.07979170233011246,
      -0.1751474291086197,
      -0.48757824301719666,
      -0.5251743197441101,
      -0.06483113765716553,
      -0.044275928288698196,
      0.011023715138435364,
      -0.07301197201013565,
      -0.054355207830667496,
      0.37149542570114136,
      0.25178372859954834,
      0.18990586698055267,
      -0.10025114566087723,
      -0.163077250123024
    ],
    [
      -0.003384032752364874,
      0.03223983198404312,
      0.248550683259964,
      0.0580025315284729,
      -0.034129150211811066,
      -0.08863761276006699,
      -0.010370315983891487,
      -0.019867567345499992,
      -0.11899548768997192,
      0.06415890902280807,
      0.4283718466758728,
      0.36051467061042786,
      0.08266440778970718,
      0.026350049301981926,
      -1.1346908807754517,
      -0.27960270643234253,
      0.12189104408025742,
      -0.12889690697193146,
      -0.05254006013274193,
      0.005241659469902515,
      -0.08856330811977386,
      -0.6728484034538269,
      0.275858610868454,
      0.20977094769477844,
      -0.007724938914179802,
      0.11374181509017944,
      0.4337884783744812,
      -0.1354975402355194,
      -0.11467377096414566,
      0.33204978704452515,
      0.1292567402124405,
      -0.2456444650888443,
      -0.2942569851875305,
      0.09448771923780441,
      -0.33266234397888184,
      -0.07335425168275833,
      0.025722993537783623,
      -0.2876307964324951,
      0.1697368323802948,
      -0.01863754726946354,
      0.037035830318927765,
      0.06085991859436035,
      0.03803999722003937,
      -0.07508792728185654,
      -1.294506549835205,
      -1.015084147453308,
      0.13285541534423828,
      -0.14246627688407898,
      -0.12642616033554077
    ],
    [
      0.019969062879681587,
      -0.03221972659230232,
      -1.2195738554000854,
      -0.29398059844970703,
      -0.8387519121170044,
      0.09903918951749802,
      -0.11377721279859543,
      -0.027051668614149094,
      -0.10872309654951096,
      -0.3189481496810913,
      0.18239951133728027,
      -0.20960569381713867,
      0.04393409192562103,
      -0.09339683502912521,
      -1.2762162685394287,
      -0.2968961298465729,
      0.21948795020580292,
      0.07626330107450485,
      0.263622522354126,
      -0.3617502748966217,
      -0.858416736125946,
      -0.3405792713165283,
      0.19731375575065613,
      -0.09935089200735092,
      0.2697419226169586,
      0.00031297438545152545,
      0.2167285680770874,
      -0.3415932059288025,
      -1.0394341945648193,
      -0.5042386651039124,
      0.2180519998073578,
      0.10204894095659256,
      0.23469951748847961,
      -0.21260444819927216,
      -1.069855809211731,
      0.08634134382009506,
      0.0027031442150473595,
      -0.35016554594039917,
      0.24738140404224396,
      -0.24215690791606903,
      0.016963286325335503,
      0.03880758583545685,
      0.028770040720701218,
      -0.07684000581502914,
      -0.8040452599525452,
      -0.3921835422515869,
      -0.6728120446205139,
      -0.003669795347377658,
      0.029781747609376907
    ],
    [
      0.003409742843359709,
      -0.1558457911014557,
      -0.42724913358688354,
      -0.050985775887966156,
      -0.7100551128387451,
      -0.10313909500837326,
      -0.010627706535160542,
      -0.14651817083358765,
      -0.11804566532373428,
      0.17267172038555145,
      0.2956392467021942,
      0.009099376387894154,
      -0.16644525527954102,
      -0.10996978729963303,
      -0.38284268975257874,
      0.09475890547037125,
      -0.7702434062957764,
      -0.019365927204489708,
      -0.817905068397522,
      -0.12022825330495834,
      -0.22798475623130798,
      -1.3556153774261475,
      0.08786936104297638,
      -0.26082679629325867,
      -0.011736111715435982,
      -0.3876926600933075,
      -0.24388538300991058,
      -0.2699359655380249,
      -1.0260694026947021,
      -0.22664661705493927,
      0.3597240149974823,
      -0.2844984829425812,
      -0.12171535938978195,
      -0.5288786888122559,
      -0.7563920021057129,
      -0.014071296900510788,
      0.058451924473047256,
      -0.8667153120040894,
      -0.16513097286224365,
      -0.6204401850700378,
      -0.0721118226647377,
      -0.12432964891195297,
      0.031909119337797165,
      -0.018764318898320198,
      -0.40071240067481995,
      -0.2910877764225006,
      -0.4925867021083832,
      -0.11386308819055557,
      -0.04757572337985039
    ],
    [
      -0.18623748421669006,
      -0.04988224059343338,
      0.07367277145385742,
      -0.13953152298927307,
      -0.03141988813877106,
      -0.2051561325788498,
      -0.2153126746416092,
      -0.1134631335735321,
      -0.15458813309669495,
      0.08621067553758621,
      -0.010743256658315659,
      0.2846793234348297,
      -0.16374516487121582,
      -0.04479829594492912,
      -0.06167543679475784,
      0.1264178305864334,
      -0.16582877933979034,
      -0.051860980689525604,
      -0.05345110222697258,
      0.08614054322242737,
      -0.12018261104822159,
      -0.2212047427892685,
      0.05283695459365845,
      0.030963242053985596,
      -0.3805316984653473,
      -0.035410765558481216,
      0.24901802837848663,
      -0.2578124701976776,
      -0.15972767770290375,
      0.03739071637392044,
      -0.12356316298246384,
      -0.09846073389053345,
      -0.21761569380760193,
      0.038525618612766266,
      0.033528197556734085,
      -0.2605234980583191,
      -0.11135266721248627,
      -0.21597148478031158,
      0.19331008195877075,
      -0.039802514016628265,
      -0.18715131282806396,
      -0.07320591062307358,
      -0.0890551432967186,
      -0.1800031065940857,
      -0.11134667694568634,
      -0.2830488085746765,
      -0.12678194046020508,
      -0.1223071813583374,
      -0.14970125257968903
    ],
    [
      -0.19571270048618317,
      -0.3212931454181671,
      -0.29463082551956177,
      -0.08625994622707367,
      -0.3873184025287628,
      -0.3369697034358978,
      -0.11521802097558975,
      -0.1976393610239029,
      -0.2980788052082062,
      -0.1422511786222458,
      0.03810226544737816,
      0.23114702105522156,
      -0.2889617383480072,
      -0.2375461906194687,
      -0.4556843340396881,
      0.10575204342603683,
      -0.03986378759145737,
      0.23823122680187225,
      -0.03717254474759102,
      0.04275180399417877,
      -0.36961841583251953,
      -0.11881175637245178,
      -0.08817427605390549,
      -0.253993958234787,
      0.14884565770626068,
      -0.021512441337108612,
      -0.030746327713131905,
      -0.10306225717067719,
      -0.5355377793312073,
      0.05732337012887001,
      -0.3451823890209198,
      0.013401475735008717,
      -0.2595956325531006,
      0.07110153138637543,
      -0.28067249059677124,
      -0.1745220571756363,
      -0.20797200500965118,
      0.03376561030745506,
      -0.041596148163080215,
      0.005876445211470127,
      -0.16984136402606964,
      -0.24584271013736725,
      -0.1342545598745346,
      -0.22986285388469696,
      -0.3807503283023834,
      -0.33069196343421936,
      -0.3810340166091919,
      -0.32098981738090515,
      -0.18722788989543915
    ],
    [
      0.017478469759225845,
      0.09199657291173935,
      0.03656541183590889,
      -0.15307261049747467,
      -0.005048396997153759,
      0.06657146662473679,
      0.008349946700036526,
      -0.036712147295475006,
      -0.03449968248605728,
      0.08827956765890121,
      0.11185158044099808,
      -0.028058640658855438,
      -0.08902601152658463,
      0.03221574425697327,
      0.07056393474340439,
      -0.08960866183042526,
      0.012502533383667469,
      -0.001130025601014495,
      -0.026165194809436798,
      0.09856433421373367,
      -0.15922899544239044,
      -0.08335531502962112,
      0.13369733095169067,
      0.05922063812613487,
      0.11838755011558533,
      -0.007667530328035355,
      0.0004603277484420687,
      0.026410536840558052,
      0.22056221961975098,
      -0.1722598522901535,
      -0.15159328281879425,
      -0.21438084542751312,
      -0.44460195302963257,
      0.3358956575393677,
      -0.7237542867660522,
      0.07405401021242142,
      0.08628938347101212,
      0.1882847398519516,
      -0.17771944403648376,
      0.4981938302516937,
      -0.1125515028834343,
      -0.05687979981303215,
      0.059089649468660355,
      0.0744650736451149,
      -0.7863421440124512,
      0.22041240334510803,
      -0.8788999915122986,
      0.07150185853242874,
      0.032594501972198486
    ],
    [
      0.036788228899240494,
      0.07419678568840027,
      0.07689526677131653,
      -0.1369340568780899,
      0.23558029532432556,
      -0.06416258215904236,
      -0.11147018522024155,
      -0.10894601792097092,
      -0.08968286216259003,
      -0.0941045805811882,
      -0.044711481779813766,
      -0.1331176459789276,
      -0.14044681191444397,
      0.06583832204341888,
      0.21789881587028503,
      -0.20447522401809692,
      0.06616021692752838,
      -0.1797388345003128,
      0.03875939920544624,
      -0.34536078572273254,
      0.37589922547340393,
      -0.02416113205254078,
      -0.043485622853040695,
      -0.06673470884561539,
      -0.0024984702467918396,
      -0.05613154172897339,
      -0.17103274166584015,
      0.06566042453050613,
      0.37687286734580994,
      -0.3516751229763031,
      0.02023959718644619,
      -0.32092544436454773,
      0.004089680500328541,
      -0.32647088170051575,
      0.3407815396785736,
      0.032076645642519,
      -0.08492019772529602,
      0.0359824076294899,
      0.2475493848323822,
      -0.040403105318546295,
      0.011033804155886173,
      0.019116846844553947,
      0.05620342865586281,
      0.023418128490447998,
      0.1695212870836258,
      -0.16068124771118164,
      0.03025529906153679,
      -0.04132833704352379,
      0.06481752544641495
    ],
    [
      -0.20220205187797546,
      -0.3379310369491577,
      -0.12122215330600739,
      0.020098978653550148,
      -0.20431922376155853,
      -0.20716464519500732,
      -0.2082076072692871,
      -0.36616289615631104,
      -0.34309065341949463,
      -0.022133124992251396,
      -0.1860230267047882,
      -0.3363710045814514,
      -0.2505530118942261,
      -0.19171404838562012,
      -0.20428019762039185,
      -0.16682833433151245,
      -0.08466921746730804,
      -0.2902872562408447,
      -0.28084322810173035,
      -0.21440568566322327,
      -0.054784081876277924,
      0.2759268879890442,
      -0.3683362305164337,
      -0.3049126863479614,
      -0.24746252596378326,
      -0.4015657603740692,
      -0.43910667300224304,
      0.3427683413028717,
      0.17948982119560242,
      -0.2200535088777542,
      -0.1243157684803009,
      -0.11489471048116684,
      -0.15604087710380554,
      -0.08086247742176056,
      -0.19117841124534607,
      -0.2746763825416565,
      -0.3690958023071289,
      -0.22808833420276642,
      -0.07371516525745392,
      -0.21730153262615204,
      -0.22932487726211548,
      -0.20970040559768677,
      -0.3498132824897766,
      -0.3693596124649048,
      -0.009777258150279522,
      -0.1346779614686966,
      -0.24312621355056763,
      -0.18669824302196503,
      -0.36014118790626526
    ],
    [
      0.081277996301651,
      0.04696144908666611,
      -1.3333667516708374,
      -0.1639089435338974,
      -1.1680805683135986,
      -0.1092996671795845,
      -0.023797350004315376,
      -0.09060126543045044,
      -0.01527224201709032,
      -0.09988673776388168,
      0.20485582947731018,
      -0.059492327272892,
      -0.12395181506872177,
      -0.036501940339803696,
      -0.4653775095939636,
      -0.07637760043144226,
      0.05643222853541374,
      0.27301278710365295,
      0.5003899931907654,
      -0.3246617019176483,
      -1.4862171411514282,
      -0.5821596384048462,
      0.04278567060828209,
      0.22045186161994934,
      0.2862749695777893,
      0.34248778223991394,
      0.03364294394850731,
      -0.15546222031116486,
      -0.7207767963409424,
      -0.32004037499427795,
      0.3191734552383423,
      -0.21058565378189087,
      0.40379586815834045,
      -0.623345673084259,
      -1.520585536956787,
      0.06327494233846664,
      -0.04936771094799042,
      -0.6113520860671997,
      0.22962743043899536,
      -0.41402366757392883,
      0.024061011150479317,
      -0.09423891454935074,
      -0.1307229846715927,
      0.019778544083237648,
      -1.7919517755508423,
      0.052452780306339264,
      -1.188369631767273,
      -0.005337893962860107,
      0.08505680412054062
    ],
    [
      -0.18079455196857452,
      -0.20102035999298096,
      -0.5728815197944641,
      -0.2367524355649948,
      -0.6968004703521729,
      -0.12472570687532425,
      -0.16834695637226105,
      -0.23641732335090637,
      -0.07965189218521118,
      0.516822099685669,
      0.284774512052536,
      0.1693854033946991,
      -0.14131559431552887,
      -0.19092980027198792,
      0.205771803855896,
      0.22756849229335785,
      -0.2672581970691681,
      0.10492631793022156,
      -0.530536949634552,
      0.09130598604679108,
      -0.7009127140045166,
      -0.05200628563761711,
      0.27213212847709656,
      0.13669535517692566,
      -0.09411053359508514,
      0.023520123213529587,
      0.11164636164903641,
      -0.11063513159751892,
      -0.035249438136816025,
      0.5560241937637329,
      -0.363585501909256,
      0.36079007387161255,
      -0.34722450375556946,
      0.3838218152523041,
      -0.7455853819847107,
      -0.11203444749116898,
      -0.15933169424533844,
      0.9129038453102112,
      0.17119722068309784,
      1.0767183303833008,
      -0.08273360133171082,
      -0.025376759469509125,
      -0.22448408603668213,
      -0.09727616608142853,
      -1.3210290670394897,
      -0.15984581410884857,
      -1.548109531402588,
      -0.1591513603925705,
      -0.17421071231365204
    ],
    [
      -0.21461765468120575,
      -0.309639573097229,
      -0.5457271337509155,
      -0.7507079839706421,
      -0.39761194586753845,
      -0.28140413761138916,
      -0.0969734787940979,
      -0.24561519920825958,
      -0.2852468490600586,
      0.09594423323869705,
      0.35850584506988525,
      -0.1599680483341217,
      -0.3233150243759155,
      -0.1452794224023819,
      0.07325374335050583,
      0.438977986574173,
      -0.3348468840122223,
      -0.26064807176589966,
      -0.4491696357727051,
      0.19326251745224,
      -1.0088928937911987,
      -0.4090389311313629,
      0.14941328763961792,
      0.21386529505252838,
      0.21326671540737152,
      0.2395704686641693,
      -0.1263565719127655,
      -0.42789044976234436,
      -0.42199254035949707,
      0.4855721890926361,
      -0.13066810369491577,
      0.04746808484196663,
      -0.8458234667778015,
      0.6421710848808289,
      -0.7119478583335876,
      -0.3164372444152832,
      -0.2667713761329651,
      0.904417097568512,
      0.023107843473553658,
      0.8449341058731079,
      -0.1649867445230484,
      -0.10333256423473358,
      -0.18655715882778168,
      -0.22927863895893097,
      -1.1443120241165161,
      -0.04598722234368324,
      -1.2767668962478638,
      -0.21053220331668854,
      -0.1933773010969162
    ],
    [
      -0.10728222876787186,
      -0.12548117339611053,
      -0.39638081192970276,
      0.15964505076408386,
      -0.3997865319252014,
      -0.13589943945407867,
      -0.21757405996322632,
      -0.09792948514223099,
      -0.010329808108508587,
      -0.045816149562597275,
      0.1077435091137886,
      -0.3135603964328766,
      -0.0982411727309227,
      -0.21179601550102234,
      -0.5837621688842773,
      -0.10572844743728638,
      -0.01036036480218172,
      -0.3024587333202362,
      -0.1724289059638977,
      -0.6548092365264893,
      -0.3291793763637543,
      0.33704873919487,
      0.29700639843940735,
      -0.2738182544708252,
      -0.3395993411540985,
      -0.10946512222290039,
      -0.20619626343250275,
      -0.5075505375862122,
      -0.04685085639357567,
      0.11297334730625153,
      -0.23240451514720917,
      0.03456423804163933,
      0.07295329868793488,
      -0.567793071269989,
      -1.2382234334945679,
      -0.18900886178016663,
      -0.14691291749477386,
      -0.07813066989183426,
      0.17570646107196808,
      -0.13356120884418488,
      -0.17888100445270538,
      -0.09770242124795914,
      -0.10731267184019089,
      -0.04779067635536194,
      0.17815209925174713,
      0.2791823744773865,
      -0.32222607731819153,
      -0.09547827392816544,
      -0.22724728286266327
    ],
    [
      0.022791974246501923,
      -0.11139123886823654,
      0.07156804203987122,
      -0.07688190788030624,
      -0.019510041922330856,
      0.015227758325636387,
      -0.07247564941644669,
      -0.02544635534286499,
      -0.043453801423311234,
      0.2589058578014374,
      0.2525821626186371,
      0.04847258701920509,
      -0.06366578489542007,
      0.024277418851852417,
      0.08845853060483932,
      0.000995282200165093,
      -0.3237369954586029,
      0.18607908487319946,
      -0.11244779825210571,
      0.108676977455616,
      -0.03471335396170616,
      0.0914296805858612,
      0.2638900876045227,
      -0.07190967351198196,
      0.21293321251869202,
      0.12570036947727203,
      0.4006034731864929,
      -0.18793985247612,
      -0.3071565330028534,
      -0.009115693159401417,
      -0.4178752601146698,
      0.0669354572892189,
      -0.35807594656944275,
      0.45428091287612915,
      -0.012095156125724316,
      -0.014957663603127003,
      0.012016515247523785,
      -0.2236582636833191,
      0.6138671040534973,
      0.3761782944202423,
      -0.05162402614951134,
      0.06449026614427567,
      -0.09107765555381775,
      0.05235633626580238,
      0.00823571439832449,
      -0.0902758464217186,
      0.2008899301290512,
      -0.07408254593610764,
      0.09002823382616043
    ],
    [
      -0.010818555019795895,
      -0.10183347761631012,
      -0.10727769881486893,
      0.10868015885353088,
      -0.31865450739860535,
      -0.15716856718063354,
      -0.024011224508285522,
      -0.10043197870254517,
      -0.19521977007389069,
      -0.1430416852235794,
      0.0006885214243084192,
      0.1338270753622055,
      -0.22319342195987701,
      -0.21706970036029816,
      -0.26520857214927673,
      0.13094288110733032,
      -0.15213583409786224,
      0.22114412486553192,
      -0.08981231600046158,
      0.07161471992731094,
      0.04446735233068466,
      -0.30401262640953064,
      0.20766301453113556,
      -0.0773189589381218,
      -0.1311650574207306,
      -0.027755647897720337,
      0.3001149594783783,
      0.051476337015628815,
      -1.5207817554473877,
      -0.7127372026443481,
      0.13925662636756897,
      -0.0006490531959570944,
      0.036394838243722916,
      -0.07115896791219711,
      -0.0097863944247365,
      -0.21418295800685883,
      -0.06680897623300552,
